booster[0]:
0:[qs_query_wid_ctr_15d<0.12501] yes=1,no=2,missing=1
	1:[sa_wid_order_stk<95.5] yes=3,no=4,missing=3
		3:[sa_wid_pv<101.5] yes=7,no=8,missing=7
			7:[bm25_12<3.685] yes=15,no=16,missing=15
				15:[qs_query_cid2_ctr_15d<0.322008] yes=31,no=32,missing=31
					31:leaf=-0.199693
					32:leaf=-0.156637
				16:[q_query_click_15d<62.5] yes=33,no=34,missing=33
					33:leaf=-0.101483
					34:leaf=-0.155954
			8:[q_query_view_15d<605.5] yes=17,no=18,missing=17
				17:[s_wid_ctr_15d<0.0869179] yes=35,no=36,missing=35
					35:leaf=-0.0410118
					36:leaf=0.0661006
				18:[qs_query_wid_ctr_15d<0.071444] yes=37,no=38,missing=37
					37:leaf=-0.115328
					38:leaf=0.00539883
		4:[s_wid_ctr_15d<0.089204] yes=9,no=10,missing=9
			9:[qs_query_wid_ctr_15d<0.0908956] yes=19,no=20,missing=19
				19:[qs_query_wid_order_15d<56.5] yes=39,no=40,missing=39
					39:leaf=-0.0405926
					40:leaf=0.0141515
				20:[is_order_by_user<0.5] yes=41,no=42,missing=41
					41:leaf=0.067342
					42:leaf=0.178569
			10:[qs_query_wid_ctr_15d<0.0857246] yes=21,no=22,missing=21
				21:[q_query_view_15d<159.5] yes=43,no=44,missing=43
					43:leaf=0.113816
					44:leaf=0.00591677
				22:[sa_wid_cvr<0.0459565] yes=45,no=46,missing=45
					45:leaf=0.0543086
					46:leaf=0.0898144
	2:[qs_query_wid_ctr_15d<0.204565] yes=5,no=6,missing=5
		5:[sa_wid_cvr<0.0321783] yes=11,no=12,missing=11
			11:[qs_query_wid_ctr_15d<0.147716] yes=23,no=24,missing=23
				23:[sa_wid_order_stk<131.5] yes=47,no=48,missing=47
					47:leaf=0.0488829
					48:leaf=0.0782897
				24:[is_order_by_user<0.5] yes=49,no=50,missing=49
					49:leaf=0.094768
					50:leaf=0.184877
			12:[qs_query_wid_ctr_15d<0.153857] yes=25,no=26,missing=25
				25:[is_order_by_user<0.5] yes=51,no=52,missing=51
					51:leaf=0.106834
					52:leaf=0.183896
				26:[is_order_by_user<0.5] yes=53,no=54,missing=53
					53:leaf=0.126652
					54:leaf=0.186143
		6:[qs_query_wid_cvr_15d<0.0217279] yes=13,no=14,missing=13
			13:[qs_query_wid_ctr_15d<0.276285] yes=27,no=28,missing=27
				27:[sa_wid_order_stk<116.5] yes=55,no=56,missing=55
					55:leaf=0.101779
					56:leaf=0.140712
				28:[qs_query_wid_ctr_15d<0.3794] yes=57,no=58,missing=57
					57:leaf=0.15653
					58:leaf=0.170868
			14:[qs_query_wid_ctr_15d<0.335727] yes=29,no=30,missing=29
				29:[sa_wid_addcart<513201] yes=59,no=60,missing=59
					59:leaf=0.162099
					60:leaf=0.173866
				30:[qs_query_wid_ctr_15d<0.494238] yes=61,no=62,missing=61
					61:leaf=0.178363
					62:leaf=0.189575
booster[1]:
0:[qs_query_wid_ctr_15d<0.12501] yes=1,no=2,missing=1
	1:[s_wid_order_15d<20.5] yes=3,no=4,missing=3
		3:[sa_wid_pv<50.5] yes=7,no=8,missing=7
			7:[bm25_12<3.435] yes=15,no=16,missing=15
				15:[s_wid_ctr_15d<0.00871842] yes=31,no=32,missing=31
					31:leaf=-0.181586
					32:leaf=-0.14233
				16:[q_query_view_15d<347.5] yes=33,no=34,missing=33
					33:leaf=-0.0967139
					34:leaf=-0.146228
			8:[q_query_view_15d<136.5] yes=17,no=18,missing=17
				17:[bm25_2<13.465] yes=35,no=36,missing=35
					35:leaf=-0.0301777
					36:leaf=0.0322564
				18:[qs_query_wid_ctr_15d<0.0833227] yes=37,no=38,missing=37
					37:leaf=-0.0936674
					38:leaf=0.0264775
		4:[s_wid_ctr_15d<0.0849682] yes=9,no=10,missing=9
			9:[qs_query_wid_ctr_15d<0.0908928] yes=19,no=20,missing=19
				19:[q_query_view_15d<124.5] yes=39,no=40,missing=39
					39:leaf=0.0545482
					40:leaf=-0.0293945
				20:[is_order_by_user<0.5] yes=41,no=42,missing=41
					41:leaf=0.0606268
					42:leaf=0.162728
			10:[qs_query_wid_ctr_15d<0.0870435] yes=21,no=22,missing=21
				21:[q_query_view_15d<147.5] yes=43,no=44,missing=43
					43:leaf=0.102933
					44:leaf=0.00953796
				22:[sa_wid_cvr<0.0611699] yes=45,no=46,missing=45
					45:leaf=0.0536047
					46:leaf=0.084333
	2:[qs_query_wid_ctr_15d<0.19564] yes=5,no=6,missing=5
		5:[sa_wid_cvr<0.0421167] yes=11,no=12,missing=11
			11:[qs_query_wid_ctr_15d<0.142845] yes=23,no=24,missing=23
				23:[is_order_by_user<0.5] yes=47,no=48,missing=47
					47:leaf=0.0631159
					48:leaf=0.169942
				24:[sa_wid_cvr<0.016789] yes=49,no=50,missing=49
					49:leaf=0.070932
					50:leaf=0.0971266
			12:[is_order_by_user<0.5] yes=25,no=26,missing=25
				25:[qs_query_wid_ctr_15d<0.153862] yes=51,no=52,missing=51
					51:leaf=0.0987169
					52:leaf=0.113234
				26:[qs_query_cid2_ctr_15d<0.820451] yes=53,no=54,missing=53
					53:leaf=0.167747
					54:leaf=0.0724232
		6:[qs_query_wid_ctr_15d<0.249988] yes=13,no=14,missing=13
			13:[qs_query_wid_cvr_15d<0.0131687] yes=27,no=28,missing=27
				27:[sa_wid_good_comm<93.5] yes=55,no=56,missing=55
					55:leaf=0.0778606
					56:leaf=0.118539
				28:[s_wid_cvr_15d<0.0352149] yes=57,no=58,missing=57
					57:leaf=0.13257
					58:leaf=0.153601
			14:[qs_query_wid_cvr_15d<0.0240745] yes=29,no=30,missing=29
				29:[qs_query_wid_ctr_15d<0.31962] yes=59,no=60,missing=59
					59:leaf=0.135682
					60:leaf=0.15108
				30:[qs_query_wid_ctr_15d<0.37776] yes=61,no=62,missing=61
					61:leaf=0.153312
					62:leaf=0.166281
booster[2]:
0:[qs_query_wid_ctr_15d<0.12501] yes=1,no=2,missing=1
	1:[sa_wid_order_stk<171.5] yes=3,no=4,missing=3
		3:[sa_wid_pv<111.5] yes=7,no=8,missing=7
			7:[bm25_12<3.545] yes=15,no=16,missing=15
				15:[s_wid_ctr_15d<0.0593833] yes=31,no=32,missing=31
					31:leaf=-0.167667
					32:leaf=-0.0043679
				16:[q_query_order_15d<1.5] yes=33,no=34,missing=33
					33:leaf=-0.0807767
					34:leaf=-0.13084
			8:[q_query_view_15d<164.5] yes=17,no=18,missing=17
				17:[bm25_2<13.075] yes=35,no=36,missing=35
					35:leaf=-0.0291146
					36:leaf=0.0276298
				18:[qs_query_wid_ctr_15d<0.0833227] yes=37,no=38,missing=37
					37:leaf=-0.0852703
					38:leaf=0.0218493
		4:[s_wid_ctr_15d<0.0855407] yes=9,no=10,missing=9
			9:[qs_query_wid_ctr_15d<0.0908956] yes=19,no=20,missing=19
				19:[qs_query_wid_order_15d<69.5] yes=39,no=40,missing=39
					39:leaf=-0.0301529
					40:leaf=0.0191604
				20:[is_order_by_user<0.5] yes=41,no=42,missing=41
					41:leaf=0.056985
					42:leaf=0.15146
			10:[qs_query_wid_ctr_15d<0.0833448] yes=21,no=22,missing=21
				21:[q_query_view_15d<159.5] yes=43,no=44,missing=43
					43:leaf=0.0929644
					44:leaf=0.00305809
				22:[sa_wid_cvr<0.0621714] yes=45,no=46,missing=45
					45:leaf=0.0473905
					46:leaf=0.0748796
	2:[qs_query_wid_ctr_15d<0.224286] yes=5,no=6,missing=5
		5:[sa_wid_cvr<0.0468171] yes=11,no=12,missing=11
			11:[qs_query_wid_ctr_15d<0.153832] yes=23,no=24,missing=23
				23:[is_order_by_user<0.5] yes=47,no=48,missing=47
					47:leaf=0.0602871
					48:leaf=0.154404
				24:[is_order_by_user<0.5] yes=49,no=50,missing=49
					49:leaf=0.0853072
					50:leaf=0.162835
			12:[qs_query_wid_ctr_15d<0.183117] yes=25,no=26,missing=25
				25:[is_order_by_user<0.5] yes=51,no=52,missing=51
					51:leaf=0.0952881
					52:leaf=0.155349
				26:[sa_wid_order_stk<61349.5] yes=53,no=54,missing=53
					53:leaf=0.114039
					54:leaf=0.143426
		6:[qs_query_wid_cvr_15d<0.0243773] yes=13,no=14,missing=13
			13:[qs_query_wid_ctr_15d<0.317942] yes=27,no=28,missing=27
				27:[qs_query_shop_cvr_15d<0.007286] yes=55,no=56,missing=55
					55:leaf=0.103774
					56:leaf=0.125034
				28:[qs_query_wid_ctr_15d<0.415582] yes=57,no=58,missing=57
					57:leaf=0.134902
					58:leaf=0.147722
			14:[qs_query_wid_ctr_15d<0.349734] yes=29,no=30,missing=29
				29:[q_query_ctr_15d<0.747367] yes=59,no=60,missing=59
					59:leaf=0.144103
					60:leaf=0.134222
				30:[qs_query_wid_ctr_15d<0.462204] yes=61,no=62,missing=61
					61:leaf=0.148992
					62:leaf=0.158369
booster[3]:
0:[qs_query_wid_ctr_15d<0.12501] yes=1,no=2,missing=1
	1:[sa_wid_order_stk<35.5] yes=3,no=4,missing=3
		3:[bm25_2<2.715] yes=7,no=8,missing=7
			7:[s_wid_ctr_15d<0.00538796] yes=15,no=16,missing=15
				15:[s_shop_click_15d<393474] yes=31,no=32,missing=31
					31:leaf=-0.15756
					32:leaf=-0.0603308
				16:[qs_query_wid_ctr_15d<0.0302906] yes=33,no=34,missing=33
					33:leaf=-0.119541
					34:leaf=-0.0525754
			8:[q_query_order_15d<10.5] yes=17,no=18,missing=17
				17:[s_wid_ctr_15d<0.0727374] yes=35,no=36,missing=35
					35:leaf=-0.0515948
					36:leaf=0.0518667
				18:[qs_query_wid_ctr_15d<0.0588112] yes=37,no=38,missing=37
					37:leaf=-0.102621
					38:leaf=-0.00544098
		4:[s_wid_order_15d<230.5] yes=9,no=10,missing=9
			9:[q_query_view_15d<116.5] yes=19,no=20,missing=19
				19:[bm25_12<9.245] yes=39,no=40,missing=39
					39:leaf=-0.0143935
					40:leaf=0.0648791
				20:[qs_query_shop_ctr_15d<0.115401] yes=41,no=42,missing=41
					41:leaf=-0.0632415
					42:leaf=-0.0187475
			10:[s_wid_ctr_15d<0.0560151] yes=21,no=22,missing=21
				21:[qs_query_wid_ctr_15d<0.0474611] yes=43,no=44,missing=43
					43:leaf=-0.0384529
					44:leaf=0.029257
				22:[qs_query_wid_ctr_15d<0.0936897] yes=45,no=46,missing=45
					45:leaf=0.0296638
					46:leaf=0.0658695
	2:[qs_query_wid_ctr_15d<0.225501] yes=5,no=6,missing=5
		5:[sa_wid_cvr<0.0458826] yes=11,no=12,missing=11
			11:[qs_query_wid_ctr_15d<0.156706] yes=23,no=24,missing=23
				23:[sa_wid_follow<42.5] yes=47,no=48,missing=47
					47:leaf=0.0165381
					48:leaf=0.0609604
				24:[is_order_by_user<0.5] yes=49,no=50,missing=49
					49:leaf=0.0799846
					50:leaf=0.152981
			12:[qs_query_wid_ctr_15d<0.153862] yes=25,no=26,missing=25
				25:[is_order_by_user<0.5] yes=51,no=52,missing=51
					51:leaf=0.0810848
					52:leaf=0.142453
				26:[s_wid_cvr_15d<0.0101362] yes=53,no=54,missing=53
					53:leaf=0.0932145
					54:leaf=0.107593
		6:[qs_query_wid_cvr_15d<0.0139087] yes=13,no=14,missing=13
			13:[qs_query_wid_ctr_15d<0.29527] yes=27,no=28,missing=27
				27:[s_wid_order_15d<9.5] yes=55,no=56,missing=55
					55:leaf=0.0753672
					56:leaf=0.106887
				28:[s_cid3_cvr_15d<0.000226441] yes=57,no=58,missing=57
					57:leaf=-0.0750622
					58:leaf=0.12309
			14:[qs_query_wid_ctr_15d<0.335505] yes=29,no=30,missing=29
				29:[q_query_ctr_15d<0.782881] yes=59,no=60,missing=59
					59:leaf=0.129018
					60:leaf=0.117572
				30:[qs_query_wid_ctr_15d<0.458739] yes=61,no=62,missing=61
					61:leaf=0.136251
					62:leaf=0.146227
booster[4]:
0:[qs_query_wid_ctr_15d<0.12501] yes=1,no=2,missing=1
	1:[sa_wid_order_stk<45.5] yes=3,no=4,missing=3
		3:[s_wid_click_15d<10.5] yes=7,no=8,missing=7
			7:[bm25_2<4.605] yes=15,no=16,missing=15
				15:[qs_query_brand_ctr_15d<0.0470789] yes=31,no=32,missing=31
					31:leaf=-0.148882
					32:leaf=-0.109205
				16:[q_query_ctr_15d<0.222997] yes=33,no=34,missing=33
					33:leaf=-0.0742714
					34:leaf=-0.115461
			8:[q_query_order_15d<52.5] yes=17,no=18,missing=17
				17:[s_wid_ctr_15d<0.0826626] yes=35,no=36,missing=35
					35:leaf=-0.0432224
					36:leaf=0.0424702
				18:[qs_query_wid_ctr_15d<0.0624874] yes=37,no=38,missing=37
					37:leaf=-0.0936524
					38:leaf=-0.0066523
		4:[s_wid_order_15d<291.5] yes=9,no=10,missing=9
			9:[q_query_view_15d<145.5] yes=19,no=20,missing=19
				19:[bm25_12<10.825] yes=39,no=40,missing=39
					39:leaf=-0.00295342
					40:leaf=0.0670447
				20:[qs_query_brand_ctr_15d<0.0769412] yes=41,no=42,missing=41
					41:leaf=-0.0748333
					42:leaf=-0.0212044
			10:[qs_query_wid_ctr_15d<0.0649235] yes=21,no=22,missing=21
				21:[q_query_view_15d<145.5] yes=43,no=44,missing=43
					43:leaf=0.0810884
					44:leaf=-0.0154232
				22:[is_order_by_user<0.5] yes=45,no=46,missing=45
					45:leaf=0.0503235
					46:leaf=0.158836
	2:[qs_query_wid_ctr_15d<0.19564] yes=5,no=6,missing=5
		5:[sa_wid_cvr<0.025259] yes=11,no=12,missing=11
			11:[qs_query_shop_order_15d<2031.5] yes=23,no=24,missing=23
				23:[s_wid_order_15d<12.5] yes=47,no=48,missing=47
					47:leaf=0.0347044
					48:leaf=0.056047
				24:[sa_brand_cvr<0.0444534] yes=49,no=50,missing=49
					49:leaf=0.00950606
					50:leaf=-0.0923291
			12:[is_order_by_user<0.5] yes=25,no=26,missing=25
				25:[s_wid_cvr_15d<0.01001] yes=51,no=52,missing=51
					51:leaf=0.0719825
					52:leaf=0.0873252
				26:[bm25_12<5.17] yes=53,no=54,missing=53
					53:leaf=0.0698794
					54:leaf=0.138443
		6:[qs_query_wid_cvr_15d<0.0217289] yes=13,no=14,missing=13
			13:[qs_query_wid_ctr_15d<0.249784] yes=27,no=28,missing=27
				27:[sa_wid_cvr<0.0214099] yes=55,no=56,missing=55
					55:leaf=0.0742022
					56:leaf=0.095815
				28:[qs_query_wid_ctr_15d<0.345253] yes=57,no=58,missing=57
					57:leaf=0.106951
					58:leaf=0.121752
			14:[qs_query_wid_ctr_15d<0.350902] yes=29,no=30,missing=29
				29:[s_cid2_ctr_15d<0.571427] yes=59,no=60,missing=59
					59:leaf=0.0958637
					60:leaf=0.120012
				30:[qs_query_wid_ctr_15d<0.462356] yes=61,no=62,missing=61
					61:leaf=0.129565
					62:leaf=0.138944
booster[5]:
0:[qs_query_wid_ctr_15d<0.12501] yes=1,no=2,missing=1
	1:[sa_wid_order_stk<21.5] yes=3,no=4,missing=3
		3:[bm25_12<3.245] yes=7,no=8,missing=7
			7:[s_wid_ctr_15d<0.030545] yes=15,no=16,missing=15
				15:[s_cid2_ctr_15d<0.579479] yes=31,no=32,missing=31
					31:leaf=-0.142194
					32:leaf=-0.109943
				16:[qs_query_wid_ctr_15d<0.0425171] yes=33,no=34,missing=33
					33:leaf=-0.0772853
					34:leaf=-0.0196155
			8:[q_query_order_15d<14.5] yes=17,no=18,missing=17
				17:[s_wid_ctr_15d<0.0667686] yes=35,no=36,missing=35
					35:leaf=-0.0491936
					36:leaf=0.0331453
				18:[qs_query_wid_ctr_15d<0.0588116] yes=37,no=38,missing=37
					37:leaf=-0.0924555
					38:leaf=-0.00980564
		4:[s_wid_order_15d<122.5] yes=9,no=10,missing=9
			9:[q_query_order_15d<267.5] yes=19,no=20,missing=19
				19:[qs_query_wid_ctr_15d<0.0714155] yes=39,no=40,missing=39
					39:leaf=-0.0124329
					40:leaf=0.0485071
				20:[qs_query_wid_order_15d<4.5] yes=41,no=42,missing=41
					41:leaf=-0.0703906
					42:leaf=-0.0206302
			10:[s_wid_ctr_15d<0.0557765] yes=21,no=22,missing=21
				21:[qs_query_wid_ctr_15d<0.0540076] yes=43,no=44,missing=43
					43:leaf=-0.0329094
					44:leaf=0.0363625
				22:[qs_query_wid_ctr_15d<0.0419693] yes=45,no=46,missing=45
					45:leaf=-0.0017148
					46:leaf=0.0374409
	2:[qs_query_wid_ctr_15d<0.200036] yes=5,no=6,missing=5
		5:[sa_wid_cvr<0.0256301] yes=11,no=12,missing=11
			11:[qs_query_wid_ctr_15d<0.141801] yes=23,no=24,missing=23
				23:[sa_wid_order_stk<67.5] yes=47,no=48,missing=47
					47:leaf=0.00544583
					48:leaf=0.0382771
				24:[sa_shop_good_ratio<0.923093] yes=49,no=50,missing=49
					49:leaf=0.0248513
					50:leaf=0.0581084
			12:[s_wid_cvr_15d<0.01001] yes=25,no=26,missing=25
				25:[qs_query_wid_ctr_15d<0.164484] yes=51,no=52,missing=51
					51:leaf=0.0621972
					52:leaf=0.0789915
				26:[sa_shop_bad_ratio<0.0109576] yes=53,no=54,missing=53
					53:leaf=0.0650804
					54:leaf=0.0857593
		6:[qs_query_wid_cvr_15d<0.0250438] yes=13,no=14,missing=13
			13:[qs_query_wid_ctr_15d<0.293597] yes=27,no=28,missing=27
				27:[is_order_by_user<0.5] yes=55,no=56,missing=55
					55:leaf=0.0909058
					56:leaf=0.141335
				28:[qs_query_wid_ctr_15d<0.426169] yes=57,no=58,missing=57
					57:leaf=0.106867
					58:leaf=0.1223
			14:[qs_query_wid_ctr_15d<0.293135] yes=29,no=30,missing=29
				29:[sa_wid_addcart<470551] yes=59,no=60,missing=59
					59:leaf=0.105918
					60:leaf=0.118277
				30:[qs_query_wid_ctr_15d<0.425869] yes=61,no=62,missing=61
					61:leaf=0.119883
					62:leaf=0.129797
booster[6]:
0:[qs_query_wid_ctr_15d<0.12501] yes=1,no=2,missing=1
	1:[sa_wid_order_stk<24.5] yes=3,no=4,missing=3
		3:[s_wid_click_15d<5.5] yes=7,no=8,missing=7
			7:[bm25_2<4.215] yes=15,no=16,missing=15
				15:[qs_query_shop_click_15d<645.5] yes=31,no=32,missing=31
					31:leaf=-0.136377
					32:leaf=-0.0266108
				16:[s_shop_ctr_15d<0.0993743] yes=33,no=34,missing=33
					33:leaf=-0.101589
					34:leaf=-0.0551436
			8:[q_query_order_15d<15.5] yes=17,no=18,missing=17
				17:[s_wid_ctr_15d<0.0666534] yes=35,no=36,missing=35
					35:leaf=-0.038493
					36:leaf=0.0311638
				18:[qs_query_wid_ctr_15d<0.0588116] yes=37,no=38,missing=37
					37:leaf=-0.0832159
					38:leaf=-0.00720949
		4:[s_wid_order_15d<111.5] yes=9,no=10,missing=9
			9:[q_query_order_15d<991.5] yes=19,no=20,missing=19
				19:[qs_query_wid_ctr_15d<0.0769383] yes=39,no=40,missing=39
					39:leaf=-0.0158302
					40:leaf=0.0442039
				20:[qs_query_wid_order_15d<7.5] yes=41,no=42,missing=41
					41:leaf=-0.0688662
					42:leaf=-0.0227904
			10:[s_wid_ctr_15d<0.058506] yes=21,no=22,missing=21
				21:[qs_query_wid_ctr_15d<0.0565935] yes=43,no=44,missing=43
					43:leaf=-0.0276346
					44:leaf=0.0372576
				22:[bm25_12<7.335] yes=45,no=46,missing=45
					45:leaf=0.0129002
					46:leaf=0.042311
	2:[qs_query_wid_ctr_15d<0.224286] yes=5,no=6,missing=5
		5:[qs_query_wid_ctr_15d<0.16128] yes=11,no=12,missing=11
			11:[sa_wid_cvr<0.0679026] yes=23,no=24,missing=23
				23:[is_order_by_user<0.5] yes=47,no=48,missing=47
					47:leaf=0.0471555
					48:leaf=0.127677
				24:[sa_shop_follow<140884] yes=49,no=50,missing=49
					49:leaf=0.0571679
					50:leaf=0.0728947
			12:[s_wid_cvr_15d<0.00998275] yes=25,no=26,missing=25
				25:[is_order_by_user<0.5] yes=51,no=52,missing=51
					51:leaf=0.0681678
					52:leaf=0.132428
				26:[s_brand_order_15d<61101] yes=53,no=54,missing=53
					53:leaf=0.0951441
					54:leaf=0.0801069
		6:[qs_query_wid_cvr_15d<0.0229763] yes=13,no=14,missing=13
			13:[qs_query_wid_ctr_15d<0.313582] yes=27,no=28,missing=27
				27:[qs_query_shop_cvr_15d<0.00663661] yes=55,no=56,missing=55
					55:leaf=0.0710706
					56:leaf=0.0907683
				28:[qs_query_wid_cvr_15d<0.0123288] yes=57,no=58,missing=57
					57:leaf=0.0988105
					58:leaf=0.110514
			14:[qs_query_wid_ctr_15d<0.379069] yes=29,no=30,missing=29
				29:[s_cid2_ctr_15d<0.571427] yes=59,no=60,missing=59
					59:leaf=0.084933
					60:leaf=0.10835
				30:[qs_query_wid_ctr_15d<0.471969] yes=61,no=62,missing=61
					61:leaf=0.117662
					62:leaf=0.125757
booster[7]:
0:[qs_query_wid_ctr_15d<0.12501] yes=1,no=2,missing=1
	1:[sa_wid_order_stk<11.5] yes=3,no=4,missing=3
		3:[bm25_12<2.755] yes=7,no=8,missing=7
			7:[s_wid_ctr_15d<0.0289042] yes=15,no=16,missing=15
				15:[qs_query_cid3_cvr_15d<0.00617259] yes=31,no=32,missing=31
					31:leaf=-0.131798
					32:leaf=-0.0981386
				16:[s_wid_ctr_15d<0.0450067] yes=33,no=34,missing=33
					33:leaf=-0.0802791
					34:leaf=-0.0338243
			8:[qs_query_wid_ctr_15d<0.0476084] yes=17,no=18,missing=17
				17:[q_query_order_15d<1.5] yes=35,no=36,missing=35
					35:leaf=-0.0315557
					36:leaf=-0.0847552
				18:[q_query_order_15d<12.5] yes=37,no=38,missing=37
					37:leaf=0.0191169
					38:leaf=-0.00733333
		4:[sa_wid_good_comm<2518.5] yes=9,no=10,missing=9
			9:[q_query_ctr_15d<0.20215] yes=19,no=20,missing=19
				19:[match_ratio<0.73] yes=39,no=40,missing=39
					39:leaf=-0.00251546
					40:leaf=0.0566145
				20:[qs_query_brand_ctr_15d<0.0952501] yes=41,no=42,missing=41
					41:leaf=-0.0598726
					42:leaf=-0.0200588
			10:[s_wid_ctr_15d<0.0558631] yes=21,no=22,missing=21
				21:[qs_query_wid_ctr_15d<0.0506698] yes=43,no=44,missing=43
					43:leaf=-0.0256372
					44:leaf=0.0288756
				22:[qs_query_wid_ctr_15d<0.0983709] yes=45,no=46,missing=45
					45:leaf=0.0196603
					46:leaf=0.0522963
	2:[qs_query_wid_ctr_15d<0.224286] yes=5,no=6,missing=5
		5:[sa_wid_cvr<0.0431155] yes=11,no=12,missing=11
			11:[is_order_by_user<0.5] yes=23,no=24,missing=23
				23:[qs_query_wid_ctr_15d<0.156706] yes=47,no=48,missing=47
					47:leaf=0.0346502
					48:leaf=0.0536659
				24:[s_cid3_click_15d<1.15453e+06] yes=49,no=50,missing=49
					49:leaf=0.130955
					50:leaf=0.101782
			12:[qs_query_wid_ctr_15d<0.163956] yes=25,no=26,missing=25
				25:[is_order_by_user<0.5] yes=51,no=52,missing=51
					51:leaf=0.0574149
					52:leaf=0.119808
				26:[s_wid_cvr_15d<0.0245673] yes=53,no=54,missing=53
					53:leaf=0.0727036
					54:leaf=0.0925964
		6:[qs_query_wid_cvr_15d<0.0243041] yes=13,no=14,missing=13
			13:[qs_query_wid_ctr_15d<0.313578] yes=27,no=28,missing=27
				27:[s_wid_order_15d<13.5] yes=55,no=56,missing=55
					55:leaf=0.049983
					56:leaf=0.0834203
				28:[qs_query_wid_ctr_15d<0.420391] yes=57,no=58,missing=57
					57:leaf=0.0951786
					58:leaf=0.110049
			14:[qs_query_wid_ctr_15d<0.407217] yes=29,no=30,missing=29
				29:[s_cid2_ctr_15d<0.571427] yes=59,no=60,missing=59
					59:leaf=0.0815853
					60:leaf=0.102813
				30:[qs_query_wid_ctr_15d<0.515023] yes=61,no=62,missing=61
					61:leaf=0.11251
					62:leaf=0.122204
booster[8]:
0:[qs_query_wid_ctr_15d<0.12501] yes=1,no=2,missing=1
	1:[sa_wid_order_stk<17.5] yes=3,no=4,missing=3
		3:[s_cid2_ctr_15d<0.123034] yes=7,no=8,missing=7
			7:[s_wid_ctr_15d<0.0290922] yes=15,no=16,missing=15
				15:[bm25_2<10.135] yes=31,no=32,missing=31
					31:leaf=-0.128122
					32:leaf=-0.0568014
				16:[q_query_cvr_15d<0.0131123] yes=33,no=34,missing=33
					33:leaf=0.0122887
					34:leaf=-0.0851203
			8:[q_query_order_15d<69.5] yes=17,no=18,missing=17
				17:[s_wid_ctr_15d<0.0744569] yes=35,no=36,missing=35
					35:leaf=-0.0451367
					36:leaf=0.0265207
				18:[qs_query_wid_ctr_15d<0.0483974] yes=37,no=38,missing=37
					37:leaf=-0.082649
					38:leaf=-0.0118921
		4:[s_wid_order_15d<111.5] yes=9,no=10,missing=9
			9:[q_query_order_15d<1549] yes=19,no=20,missing=19
				19:[qs_query_wid_ctr_15d<0.0769341] yes=39,no=40,missing=39
					39:leaf=-0.0164211
					40:leaf=0.0403477
				20:[qs_query_wid_ctr_15d<0.0640869] yes=41,no=42,missing=41
					41:leaf=-0.056628
					42:leaf=0.0250775
			10:[s_wid_ctr_15d<0.0710551] yes=21,no=22,missing=21
				21:[qs_query_wid_ctr_15d<0.0714129] yes=43,no=44,missing=43
					43:leaf=-0.0133678
					44:leaf=0.0436494
				22:[q_query_view_15d<104.5] yes=45,no=46,missing=45
					45:leaf=0.0792244
					46:leaf=0.024413
	2:[qs_query_wid_ctr_15d<0.228633] yes=5,no=6,missing=5
		5:[sa_wid_cvr<0.0613265] yes=11,no=12,missing=11
			11:[qs_query_wid_ctr_15d<0.164165] yes=23,no=24,missing=23
				23:[is_order_by_user<0.5] yes=47,no=48,missing=47
					47:leaf=0.0369274
					48:leaf=0.118905
				24:[sa_wid_cvr<0.0148254] yes=49,no=50,missing=49
					49:leaf=0.0367886
					50:leaf=0.0605915
			12:[qs_query_wid_ctr_15d<0.146541] yes=25,no=26,missing=25
				25:[q_query_ctr_15d<0.789837] yes=51,no=52,missing=51
					51:leaf=0.0549417
					52:leaf=0.0286628
				26:[q_query_ctr_15d<0.752797] yes=53,no=54,missing=53
					53:leaf=0.0756044
					54:leaf=0.0607687
		6:[qs_query_wid_cvr_15d<0.023245] yes=13,no=14,missing=13
			13:[qs_query_wid_ctr_15d<0.313817] yes=27,no=28,missing=27
				27:[is_order_by_user<0.5] yes=55,no=56,missing=55
					55:leaf=0.0755876
					56:leaf=0.126371
				28:[s_cid3_cvr_15d<0.000122069] yes=57,no=58,missing=57
					57:leaf=-0.157923
					58:leaf=0.0924661
			14:[qs_query_wid_ctr_15d<0.347176] yes=29,no=30,missing=29
				29:[q_query_ctr_15d<0.746452] yes=59,no=60,missing=59
					59:leaf=0.0995352
					60:leaf=0.0893132
				30:[qs_query_wid_ctr_15d<0.471574] yes=61,no=62,missing=61
					61:leaf=0.104681
					62:leaf=0.116173
booster[9]:
0:[qs_query_wid_ctr_15d<0.12501] yes=1,no=2,missing=1
	1:[sa_wid_order_stk<6.5] yes=3,no=4,missing=3
		3:[s_cid2_ctr_15d<0.123034] yes=7,no=8,missing=7
			7:[bm25_12<10.57] yes=15,no=16,missing=15
				15:[qs_query_wid_ctr_15d<0.0435091] yes=31,no=32,missing=31
					31:leaf=-0.124631
					32:leaf=0.139576
				16:[q_query_view_15d<110.5] yes=33,no=34,missing=33
					33:leaf=0.00287606
					34:leaf=-0.106785
			8:[s_wid_ctr_15d<0.066678] yes=17,no=18,missing=17
				17:[qs_query_wid_ctr_15d<0.0454654] yes=35,no=36,missing=35
					35:leaf=-0.070477
					36:leaf=-0.000273637
				18:[bm25_12<14.235] yes=37,no=38,missing=37
					37:leaf=-0.00944557
					38:leaf=0.0490908
		4:[s_wid_order_15d<58.5] yes=9,no=10,missing=9
			9:[q_query_order_15d<75.5] yes=19,no=20,missing=19
				19:[bm25_12<11.755] yes=39,no=40,missing=39
					39:leaf=-0.0195342
					40:leaf=0.0208312
				20:[qs_query_wid_order_15d<0.5] yes=41,no=42,missing=41
					41:leaf=-0.0658168
					42:leaf=-0.0251046
			10:[s_wid_ctr_15d<0.0485617] yes=21,no=22,missing=21
				21:[qs_query_wid_ctr_15d<0.0555286] yes=43,no=44,missing=43
					43:leaf=-0.0343289
					44:leaf=0.0361782
				22:[q_query_view_15d<109.5] yes=45,no=46,missing=45
					45:leaf=0.0687771
					46:leaf=0.0128532
	2:[qs_query_wid_ctr_15d<0.245649] yes=5,no=6,missing=5
		5:[qs_query_wid_ctr_15d<0.18169] yes=11,no=12,missing=11
			11:[sa_wid_cvr<0.0266723] yes=23,no=24,missing=23
				23:[is_order_by_user<0.5] yes=47,no=48,missing=47
					47:leaf=0.0272304
					48:leaf=0.120058
				24:[is_order_by_user<0.5] yes=49,no=50,missing=49
					49:leaf=0.0491347
					50:leaf=0.112483
			12:[qs_query_wid_cvr_15d<0.0194337] yes=25,no=26,missing=25
				25:[sa_wid_cvr<0.0263525] yes=51,no=52,missing=51
					51:leaf=0.0446725
					52:leaf=0.0630077
				26:[qs_query_wid_cvr_15d<0.0391393] yes=53,no=54,missing=53
					53:leaf=0.0744736
					54:leaf=0.0929372
		6:[qs_query_wid_ctr_15d<0.343641] yes=13,no=14,missing=13
			13:[qs_query_wid_cvr_15d<0.0139096] yes=27,no=28,missing=27
				27:[sa_wid_order_stk<39.5] yes=55,no=56,missing=55
					55:leaf=0.0297482
					56:leaf=0.0731849
				28:[q_query_ctr_15d<0.766356] yes=57,no=58,missing=57
					57:leaf=0.0927404
					58:leaf=0.0802123
			14:[qs_query_wid_cvr_15d<0.0192823] yes=29,no=30,missing=29
				29:[qs_query_wid_ctr_15d<0.431311] yes=59,no=60,missing=59
					59:leaf=0.0826393
					60:leaf=0.100006
				30:[qs_query_wid_ctr_15d<0.500048] yes=61,no=62,missing=61
					61:leaf=0.10057
					62:leaf=0.113003
booster[10]:
0:[qs_query_wid_ctr_15d<0.12501] yes=1,no=2,missing=1
	1:[sa_wid_pv<254.5] yes=3,no=4,missing=3
		3:[bm25_12<3.405] yes=7,no=8,missing=7
			7:[s_wid_ctr_15d<0.00725955] yes=15,no=16,missing=15
				15:[qs_query_shop_click_15d<915.5] yes=31,no=32,missing=31
					31:leaf=-0.12167
					32:leaf=0.0517819
				16:[s_wid_ctr_15d<0.0551597] yes=33,no=34,missing=33
					33:leaf=-0.084633
					34:leaf=-0.00725574
			8:[s_wid_ctr_15d<0.0370471] yes=17,no=18,missing=17
				17:[q_query_click_15d<47.5] yes=35,no=36,missing=35
					35:leaf=-0.0428892
					36:leaf=-0.0842642
				18:[q_query_click_15d<58.5] yes=37,no=38,missing=37
					37:leaf=0.0254161
					38:leaf=-0.0269974
		4:[qs_query_wid_order_15d<21.5] yes=9,no=10,missing=9
			9:[q_query_view_15d<3429.5] yes=19,no=20,missing=19
				19:[q_query_view_15d<102.5] yes=39,no=40,missing=39
					39:leaf=0.0359641
					40:leaf=-0.00635423
				20:[qs_query_wid_click_15d<84.5] yes=41,no=42,missing=41
					41:leaf=-0.0667131
					42:leaf=-0.0242396
			10:[qs_query_wid_ctr_15d<0.0543883] yes=21,no=22,missing=21
				21:[qs_query_wid_ctr_15d<0.0339261] yes=43,no=44,missing=43
					43:leaf=-0.0447035
					44:leaf=-0.00418959
				22:[is_order_by_user<0.5] yes=45,no=46,missing=45
					45:leaf=0.0304327
					46:leaf=0.147933
	2:[qs_query_wid_ctr_15d<0.192751] yes=5,no=6,missing=5
		5:[sa_wid_order_stk<2458] yes=11,no=12,missing=11
			11:[qs_query_cid2_click_15d<4757] yes=23,no=24,missing=23
				23:[sa_wid_order_stk<94.5] yes=47,no=48,missing=47
					47:leaf=0.019922
					48:leaf=0.0439723
				24:[sa_wid_order_stk<207.5] yes=49,no=50,missing=49
					49:leaf=-0.0159363
					50:leaf=0.0279515
			12:[qs_query_wid_cvr_15d<0.0129555] yes=25,no=26,missing=25
				25:[qs_query_cid3_cvr_15d<0.211926] yes=51,no=52,missing=51
					51:leaf=0.0450895
					52:leaf=-0.0116024
				26:[is_order_by_user<0.5] yes=53,no=54,missing=53
					53:leaf=0.058519
					54:leaf=0.109482
		6:[qs_query_wid_cvr_15d<0.0217279] yes=13,no=14,missing=13
			13:[qs_query_wid_ctr_15d<0.271863] yes=27,no=28,missing=27
				27:[qs_query_shop_cvr_15d<0.0104011] yes=55,no=56,missing=55
					55:leaf=0.0486158
					56:leaf=0.0657589
				28:[sa_wid_order_stk<8.5] yes=57,no=58,missing=57
					57:leaf=0.0363175
					58:leaf=0.0789354
			14:[qs_query_wid_ctr_15d<0.350552] yes=29,no=30,missing=29
				29:[is_order_by_user<0.5] yes=59,no=60,missing=59
					59:leaf=0.0816763
					60:leaf=0.116713
				30:[qs_query_wid_ctr_15d<0.495504] yes=61,no=62,missing=61
					61:leaf=0.0965583
					62:leaf=0.108229
booster[11]:
0:[sa_wid_order_stk<245.5] yes=1,no=2,missing=1
	1:[s_wid_click_15d<16.5] yes=3,no=4,missing=3
		3:[bm25_12<2.895] yes=7,no=8,missing=7
			7:[qs_query_cid2_ctr_15d<0.449227] yes=15,no=16,missing=15
				15:[s_wid_ctr_15d<0.0242793] yes=31,no=32,missing=31
					31:leaf=-0.119185
					32:leaf=-0.0432003
				16:[sa_brand_follow<143594] yes=33,no=34,missing=33
					33:leaf=-0.0754452
					34:leaf=0.0482624
			8:[q_query_click_15d<27] yes=17,no=18,missing=17
				17:[bm25_2<9.945] yes=35,no=36,missing=35
					35:leaf=-0.0681693
					36:leaf=-0.0251673
				18:[is_order_by_user<0.5] yes=37,no=38,missing=37
					37:leaf=-0.078549
					38:leaf=0.28106
		4:[qs_query_wid_ctr_15d<0.0833227] yes=9,no=10,missing=9
			9:[q_query_ctr_15d<0.133147] yes=19,no=20,missing=19
				19:[bm25_12<13.715] yes=39,no=40,missing=39
					39:leaf=-0.0108178
					40:leaf=0.0378875
				20:[qs_query_shop_ctr_15d<0.125013] yes=41,no=42,missing=41
					41:leaf=-0.0525018
					42:leaf=-0.021523
			10:[is_order_by_user<0.5] yes=21,no=22,missing=21
				21:[qs_query_wid_ctr_15d<0.27191] yes=43,no=44,missing=43
					43:leaf=0.025615
					44:leaf=0.0638939
				22:[qs_query_wid_ctr_15d<0.125233] yes=45,no=46,missing=45
					45:leaf=0.177107
					46:leaf=0.119596
	2:[qs_query_wid_ctr_15d<0.13401] yes=5,no=6,missing=5
		5:[is_order_by_user<0.5] yes=11,no=12,missing=11
			11:[s_wid_ctr_15d<0.0750257] yes=23,no=24,missing=23
				23:[bm25_12<8.745] yes=47,no=48,missing=47
					47:leaf=-0.0236144
					48:leaf=0.0114347
				24:[q_query_view_15d<106.5] yes=49,no=50,missing=49
					49:leaf=0.0628979
					50:leaf=0.0184173
			12:[qs_query_wid_ctr_15d<0.0906052] yes=25,no=26,missing=25
				25:[s_wid_order_15d<253.5] yes=51,no=52,missing=51
					51:leaf=0.189556
					52:leaf=0.154091
				26:[qs_query_wid_ctr_15d<0.125085] yes=53,no=54,missing=53
					53:leaf=0.124214
					54:leaf=0.0955435
		6:[qs_query_wid_ctr_15d<0.24987] yes=13,no=14,missing=13
			13:[is_order_by_user<0.5] yes=27,no=28,missing=27
				27:[qs_query_wid_ctr_15d<0.183117] yes=55,no=56,missing=55
					55:leaf=0.0425822
					56:leaf=0.0574289
				28:[sa_wid_pv<384696] yes=57,no=58,missing=57
					57:leaf=0.108896
					58:leaf=0.0775616
			14:[qs_query_wid_ctr_15d<0.333135] yes=29,no=30,missing=29
				29:[sa_shop_cvr<0.077287] yes=59,no=60,missing=59
					59:leaf=0.0675758
					60:leaf=0.0820459
				30:[qs_query_wid_ctr_15d<0.418787] yes=61,no=62,missing=61
					61:leaf=0.0859478
					62:leaf=0.098936
booster[12]:
0:[qs_query_wid_ctr_15d<0.12501] yes=1,no=2,missing=1
	1:[sa_wid_pv<321.5] yes=3,no=4,missing=3
		3:[bm25_12<3.525] yes=7,no=8,missing=7
			7:[s_wid_ctr_15d<0.028111] yes=15,no=16,missing=15
				15:[s_cid2_ctr_15d<0.589177] yes=31,no=32,missing=31
					31:leaf=-0.116728
					32:leaf=-0.0722211
				16:[sa_shop_bad_ratio<0.0277169] yes=33,no=34,missing=33
					33:leaf=-0.0573471
					34:leaf=0.00776086
			8:[s_wid_ctr_15d<0.0500116] yes=17,no=18,missing=17
				17:[q_query_view_15d<1118.5] yes=35,no=36,missing=35
					35:leaf=-0.0408727
					36:leaf=-0.0796532
				18:[q_query_view_15d<733.5] yes=37,no=38,missing=37
					37:leaf=0.0315788
					38:leaf=-0.0214089
		4:[qs_query_wid_order_15d<15.5] yes=9,no=10,missing=9
			9:[q_query_order_15d<925] yes=19,no=20,missing=19
				19:[q_query_view_15d<104.5] yes=39,no=40,missing=39
					39:leaf=0.031444
					40:leaf=-0.0110308
				20:[qs_query_wid_ctr_15d<0.0704339] yes=41,no=42,missing=41
					41:leaf=-0.049279
					42:leaf=0.0212293
			10:[qs_query_wid_ctr_15d<0.0339224] yes=21,no=22,missing=21
				21:[is_order_by_user<0.5] yes=43,no=44,missing=43
					43:leaf=-0.0433178
					44:leaf=0.175336
				22:[qs_query_wid_ctr_15d<0.0639107] yes=45,no=46,missing=45
					45:leaf=0.00273363
					46:leaf=0.0298269
	2:[qs_query_wid_ctr_15d<0.235306] yes=5,no=6,missing=5
		5:[sa_wid_cvr<0.0252597] yes=11,no=12,missing=11
			11:[qs_query_shop_order_15d<2031.5] yes=23,no=24,missing=23
				23:[sa_wid_order_stk<89.5] yes=47,no=48,missing=47
					47:leaf=0.00712662
					48:leaf=0.0290391
				24:[q_query_cvr_15d<0.0836333] yes=49,no=50,missing=49
					49:leaf=-0.0829616
					50:leaf=0.0846752
			12:[is_order_by_user<0.5] yes=25,no=26,missing=25
				25:[qs_query_wid_ctr_15d<0.16396] yes=51,no=52,missing=51
					51:leaf=0.0360457
					52:leaf=0.0504426
				26:[sa_brand_follow<4745] yes=53,no=54,missing=53
					53:leaf=0.0270741
					54:leaf=0.103698
		6:[qs_query_wid_cvr_15d<0.0281889] yes=13,no=14,missing=13
			13:[qs_query_wid_ctr_15d<0.340526] yes=27,no=28,missing=27
				27:[is_order_by_user<0.5] yes=55,no=56,missing=55
					55:leaf=0.0603467
					56:leaf=0.113089
				28:[s_cid3_cvr_15d<0.000122069] yes=57,no=58,missing=57
					57:leaf=-0.227721
					58:leaf=0.0796186
			14:[qs_query_wid_ctr_15d<0.379292] yes=29,no=30,missing=29
				29:[s_cid2_ctr_15d<0.571427] yes=59,no=60,missing=59
					59:leaf=0.053953
					60:leaf=0.0802233
				30:[qs_query_wid_ctr_15d<0.500048] yes=61,no=62,missing=61
					61:leaf=0.0890605
					62:leaf=0.102156
booster[13]:
0:[sa_wid_order_stk<259.5] yes=1,no=2,missing=1
	1:[s_wid_click_15d<7.5] yes=3,no=4,missing=3
		3:[bm25_12<3.425] yes=7,no=8,missing=7
			7:[s_cid2_ctr_15d<0.577651] yes=15,no=16,missing=15
				15:[s_wid_ctr_15d<0.0189424] yes=31,no=32,missing=31
					31:leaf=-0.115175
					32:leaf=-0.0280467
				16:[qs_query_shop_view_15d<21333] yes=33,no=34,missing=33
					33:leaf=-0.0630527
					34:leaf=0.0806276
			8:[s_shop_ctr_15d<0.160117] yes=17,no=18,missing=17
				17:[q_query_view_15d<101.5] yes=35,no=36,missing=35
					35:leaf=-0.0387084
					36:leaf=-0.0784276
				18:[s_wid_view_15d<116.5] yes=37,no=38,missing=37
					37:leaf=0.0686047
					38:leaf=-0.0617075
		4:[qs_query_wid_ctr_15d<0.0833227] yes=9,no=10,missing=9
			9:[is_order_by_user<0.5] yes=19,no=20,missing=19
				19:[q_query_view_15d<283.5] yes=39,no=40,missing=39
					39:leaf=-0.00212415
					40:leaf=-0.0365311
				20:[qs_query_cid2_ctr_15d<0.217012] yes=41,no=42,missing=41
					41:leaf=0.182846
					42:leaf=0.23817
			10:[is_order_by_user<0.5] yes=21,no=22,missing=21
				21:[qs_query_wid_order_15d<1.5] yes=43,no=44,missing=43
					43:leaf=0.0154075
					44:leaf=0.0349405
				22:[qs_query_wid_ctr_15d<0.125523] yes=45,no=46,missing=45
					45:leaf=0.162618
					46:leaf=0.110926
	2:[qs_query_wid_ctr_15d<0.12501] yes=5,no=6,missing=5
		5:[is_order_by_user<0.5] yes=11,no=12,missing=11
			11:[bm25_12<11.195] yes=23,no=24,missing=23
				23:[qs_query_wid_order_15d<85.5] yes=47,no=48,missing=47
					47:leaf=-0.0165796
					48:leaf=0.0179822
				24:[qs_query_wid_view_15d<50.5] yes=49,no=50,missing=49
					49:leaf=0.0709266
					50:leaf=0.0146535
			12:[qs_query_wid_ctr_15d<0.0746351] yes=25,no=26,missing=25
				25:[s_wid_ctr_15d<0.0559278] yes=51,no=52,missing=51
					51:leaf=0.16907
					52:leaf=0.143357
				26:[s_brand_order_15d<4317.5] yes=53,no=54,missing=53
					53:leaf=0.145876
					54:leaf=0.118493
		6:[qs_query_wid_ctr_15d<0.229191] yes=13,no=14,missing=13
			13:[is_order_by_user<0.5] yes=27,no=28,missing=27
				27:[s_wid_cvr_15d<0.014886] yes=55,no=56,missing=55
					55:leaf=0.0337451
					56:leaf=0.051596
				28:[s_cid2_ctr_15d<0.377928] yes=57,no=58,missing=57
					57:leaf=0.0314267
					58:leaf=0.10044
			14:[qs_query_wid_ctr_15d<0.341605] yes=29,no=30,missing=29
				29:[sa_shop_cvr<0.077287] yes=59,no=60,missing=59
					59:leaf=0.0583567
					60:leaf=0.0721329
				30:[qs_query_wid_ctr_15d<0.418787] yes=61,no=62,missing=61
					61:leaf=0.0774302
					62:leaf=0.0918915
booster[14]:
0:[qs_query_wid_order_15d<2.5] yes=1,no=2,missing=1
	1:[bm25_12<7.065] yes=3,no=4,missing=3
		3:[sa_wid_pv<101.5] yes=7,no=8,missing=7
			7:[qs_query_cid3_ctr_15d<0.101088] yes=15,no=16,missing=15
				15:[s_wid_ctr_15d<0.02092] yes=31,no=32,missing=31
					31:leaf=-0.112704
					32:leaf=-0.0475598
				16:[s_wid_ctr_15d<0.0392799] yes=33,no=34,missing=33
					33:leaf=-0.073256
					34:leaf=0.0116577
			8:[qs_query_wid_ctr_15d<0.062511] yes=17,no=18,missing=17
				17:[is_order_by_user<0.5] yes=35,no=36,missing=35
					35:leaf=-0.0542034
					36:leaf=0.157648
				18:[q_query_click_15d<652.5] yes=37,no=38,missing=37
					37:leaf=0.0369573
					38:leaf=0.00911396
		4:[q_query_view_15d<771.5] yes=9,no=10,missing=9
			9:[s_wid_order_15d<13.5] yes=19,no=20,missing=19
				19:[text_weight<211.5] yes=39,no=40,missing=39
					39:leaf=-0.021869
					40:leaf=0.0118927
				20:[bm25_12<15.715] yes=41,no=42,missing=41
					41:leaf=0.0238375
					42:leaf=0.0646304
			10:[qs_query_wid_click_15d<22.5] yes=21,no=22,missing=21
				21:[qs_query_wid_ctr_15d<0.025656] yes=43,no=44,missing=43
					43:leaf=-0.0702216
					44:leaf=-0.0146186
				22:[q_query_order_15d<316.5] yes=45,no=46,missing=45
					45:leaf=0.00405434
					46:leaf=-0.0355149
	2:[qs_query_wid_ctr_15d<0.142845] yes=5,no=6,missing=5
		5:[q_query_order_15d<1448.5] yes=11,no=12,missing=11
			11:[is_order_by_user<0.5] yes=23,no=24,missing=23
				23:[qs_query_wid_ctr_15d<0.0173747] yes=47,no=48,missing=47
					47:leaf=-0.072472
					48:leaf=0.0279214
				24:[qs_query_wid_ctr_15d<0.0901986] yes=49,no=50,missing=49
					49:leaf=0.153688
					50:leaf=0.110024
			12:[qs_query_wid_ctr_15d<0.0732147] yes=25,no=26,missing=25
				25:[qs_query_wid_order_15d<34.5] yes=51,no=52,missing=51
					51:leaf=-0.028797
					52:leaf=0.000760291
				26:[sa_wid_cvr<0.062484] yes=53,no=54,missing=53
					53:leaf=0.013179
					54:leaf=0.0333238
		6:[qs_query_wid_ctr_15d<0.249988] yes=13,no=14,missing=13
			13:[is_order_by_user<0.5] yes=27,no=28,missing=27
				27:[s_wid_cvr_15d<0.0231426] yes=55,no=56,missing=55
					55:leaf=0.0369684
					56:leaf=0.0584569
				28:[qs_query_shop_click_15d<139146] yes=57,no=58,missing=57
					57:leaf=0.100503
					58:leaf=-0.0279661
			14:[qs_query_wid_ctr_15d<0.376718] yes=29,no=30,missing=29
				29:[qs_query_wid_cvr_15d<0.0251414] yes=59,no=60,missing=59
					59:leaf=0.0558706
					60:leaf=0.0696314
				30:[qs_query_wid_ctr_15d<0.473759] yes=61,no=62,missing=61
					61:leaf=0.0777992
					62:leaf=0.0942352
booster[15]:
0:[s_wid_ctr_15d<0.101577] yes=1,no=2,missing=1
	1:[sa_wid_pv<331.5] yes=3,no=4,missing=3
		3:[bm25_2<2.975] yes=7,no=8,missing=7
			7:[s_wid_ctr_15d<0.00725691] yes=15,no=16,missing=15
				15:[qs_query_shop_click_15d<679.5] yes=31,no=32,missing=31
					31:leaf=-0.111813
					32:leaf=0.050059
				16:[s_wid_ctr_15d<0.050021] yes=33,no=34,missing=33
					33:leaf=-0.0694455
					34:leaf=0.0100574
			8:[q_query_view_15d<3821.5] yes=17,no=18,missing=17
				17:[s_wid_ctr_15d<0.0434679] yes=35,no=36,missing=35
					35:leaf=-0.0399523
					36:leaf=0.00878595
				18:[qs_query_wid_ctr_15d<0.0232681] yes=37,no=38,missing=37
					37:leaf=-0.0763582
					38:leaf=-0.0225155
		4:[is_order_by_user<0.5] yes=9,no=10,missing=9
			9:[bm25_2<10.475] yes=19,no=20,missing=19
				19:[qs_query_wid_order_15d<2.5] yes=39,no=40,missing=39
					39:leaf=-0.0344993
					40:leaf=-0.00311112
				20:[sa_wid_order_stk<96.5] yes=41,no=42,missing=41
					41:leaf=-0.00976967
					42:leaf=0.0189325
			10:[qs_query_wid_ctr_15d<0.0907356] yes=21,no=22,missing=21
				21:[sa_wid_order_stk<204] yes=43,no=44,missing=43
					43:leaf=0.191233
					44:leaf=0.140638
				22:[sa_shop_order_stk<13611.5] yes=45,no=46,missing=45
					45:leaf=0.116576
					46:leaf=0.0979521
	2:[qs_query_wid_ctr_15d<0.190522] yes=5,no=6,missing=5
		5:[qs_query_wid_view_15d<50.5] yes=11,no=12,missing=11
			11:[bm25_12<11.455] yes=23,no=24,missing=23
				23:[s_wid_cvr_15d<0.0213856] yes=47,no=48,missing=47
					47:leaf=0.0228345
					48:leaf=0.0803234
				24:[qs_query_brand_order_15d<9.5] yes=49,no=50,missing=49
					49:leaf=0.0801255
					50:leaf=0.149446
			12:[qs_query_wid_ctr_15d<0.0541551] yes=25,no=26,missing=25
				25:[qs_query_wid_ctr_15d<0.0275389] yes=51,no=52,missing=51
					51:leaf=-0.0960197
					52:leaf=-0.0296479
				26:[sa_wid_order_stk<20319.5] yes=53,no=54,missing=53
					53:leaf=0.0256578
					54:leaf=0.0481999
		6:[qs_query_wid_cvr_15d<0.0303471] yes=13,no=14,missing=13
			13:[qs_query_wid_ctr_15d<0.313578] yes=27,no=28,missing=27
				27:[is_order_by_user<0.5] yes=55,no=56,missing=55
					55:leaf=0.0425978
					56:leaf=0.10275
				28:[qs_query_wid_cvr_15d<0.0121729] yes=57,no=58,missing=57
					57:leaf=0.0511064
					58:leaf=0.0666025
			14:[qs_query_wid_ctr_15d<0.302086] yes=29,no=30,missing=29
				29:[sa_wid_addcart<467155] yes=59,no=60,missing=59
					59:leaf=0.0542576
					60:leaf=0.0745803
				30:[qs_query_wid_ctr_15d<0.45766] yes=61,no=62,missing=61
					61:leaf=0.0746682
					62:leaf=0.0905041
booster[16]:
0:[qs_query_shop_ctr_15d<0.142816] yes=1,no=2,missing=1
	1:[s_cid2_ctr_15d<0.123034] yes=3,no=4,missing=3
		3:[match_ratio<0.71] yes=7,no=8,missing=7
			7:[qs_query_cid3_ctr_15d<0.130539] yes=15,no=16,missing=15
				15:[bm25_12<11.075] yes=31,no=32,missing=31
					31:leaf=-0.110851
					32:leaf=-0.0126261
				16:[qs_query_shop_ctr_15d<0.0332642] yes=33,no=34,missing=33
					33:leaf=-0.0643666
					34:leaf=0.0794325
			8:[qs_query_wid_ctr_15d<0.0171794] yes=17,no=18,missing=17
				17:[sa_shop_good_ratio<0.994762] yes=35,no=36,missing=35
					35:leaf=-0.0452828
					36:leaf=0.192067
				18:[s_cid3_click_15d<36144.5] yes=37,no=38,missing=37
					37:leaf=-0.0173544
					38:leaf=0.0708019
		4:[q_query_view_15d<102.5] yes=9,no=10,missing=9
			9:[bm25_2<14.895] yes=19,no=20,missing=19
				19:[sa_wid_cvr<0.047608] yes=39,no=40,missing=39
					39:leaf=-0.00955341
					40:leaf=0.0295887
				20:[s_wid_order_15d<36.5] yes=41,no=42,missing=41
					41:leaf=0.034217
					42:leaf=0.0823785
			10:[qs_query_wid_order_15d<0.5] yes=21,no=22,missing=21
				21:[qs_query_wid_ctr_15d<0.0624874] yes=43,no=44,missing=43
					43:leaf=-0.05126
					44:leaf=0.0127053
				22:[qs_query_wid_ctr_15d<0.0833225] yes=45,no=46,missing=45
					45:leaf=-0.0173012
					46:leaf=0.0230606
	2:[qs_query_wid_ctr_15d<0.142845] yes=5,no=6,missing=5
		5:[is_order_by_user<0.5] yes=11,no=12,missing=11
			11:[s_wid_ctr_15d<0.0914471] yes=23,no=24,missing=23
				23:[qs_query_wid_ctr_15d<0.100012] yes=47,no=48,missing=47
					47:leaf=-0.0036622
					48:leaf=0.0294503
				24:[qs_query_wid_ctr_15d<0.0618196] yes=49,no=50,missing=49
					49:leaf=-0.00856218
					50:leaf=0.0256063
			12:[qs_query_wid_ctr_15d<0.0901913] yes=25,no=26,missing=25
				25:[sa_wid_good_comm<312.5] yes=51,no=52,missing=51
					51:leaf=0.175104
					52:leaf=0.126271
				26:[qs_query_wid_ctr_15d<0.125298] yes=53,no=54,missing=53
					53:leaf=0.105994
					54:leaf=0.0828766
		6:[qs_query_wid_ctr_15d<0.249819] yes=13,no=14,missing=13
			13:[is_order_by_user<0.5] yes=27,no=28,missing=27
				27:[s_shop_cvr_15d<0.00746246] yes=55,no=56,missing=55
					55:leaf=0.0223804
					56:leaf=0.0372089
				28:[qs_query_wid_ctr_15d<0.157637] yes=57,no=58,missing=57
					57:leaf=0.0823441
					58:leaf=0.097901
			14:[qs_query_wid_ctr_15d<0.410139] yes=29,no=30,missing=29
				29:[qs_query_wid_cvr_15d<0.00910126] yes=59,no=60,missing=59
					59:leaf=0.0393336
					60:leaf=0.059123
				30:[s_cid3_order_15d<144.5] yes=61,no=62,missing=61
					61:leaf=-0.0644829
					62:leaf=0.0797773
booster[17]:
0:[qs_query_shop_ctr_15d<0.142816] yes=1,no=2,missing=1
	1:[s_cid2_ctr_15d<0.123034] yes=3,no=4,missing=3
		3:[match_ratio<0.775] yes=7,no=8,missing=7
			7:[qs_query_wid_click_15d<20.5] yes=15,no=16,missing=15
				15:[bm25_12<11.2] yes=31,no=32,missing=31
					31:leaf=-0.10958
					32:leaf=0.000698488
				16:leaf=0.147105
			8:[q_query_ctr_15d<0.308435] yes=17,no=18,missing=17
				17:[s_brand_order_15d<2474] yes=33,no=34,missing=33
					33:leaf=-0.0218514
					34:leaf=0.0707406
				18:[qs_query_wid_click_15d<17.5] yes=35,no=36,missing=35
					35:leaf=-0.0870811
					36:leaf=0.0451669
		4:[q_query_ctr_15d<0.20215] yes=9,no=10,missing=9
			9:[bm25_12<11.985] yes=19,no=20,missing=19
				19:[sa_wid_cvr<0.0854314] yes=37,no=38,missing=37
					37:leaf=-0.013055
					38:leaf=0.0371866
				20:[sa_wid_order_stk<183.5] yes=39,no=40,missing=39
					39:leaf=0.0165003
					40:leaf=0.0619689
			10:[qs_query_wid_order_15d<1.5] yes=21,no=22,missing=21
				21:[qs_query_wid_ctr_15d<0.0666495] yes=41,no=42,missing=41
					41:leaf=-0.0446932
					42:leaf=0.0151412
				22:[q_query_order_15d<8034.5] yes=43,no=44,missing=43
					43:leaf=0.00223073
					44:leaf=-0.0277871
	2:[qs_query_wid_ctr_15d<0.16128] yes=5,no=6,missing=5
		5:[is_order_by_user<0.5] yes=11,no=12,missing=11
			11:[sa_wid_good_comm<11119.5] yes=23,no=24,missing=23
				23:[s_cid3_order_15d<39573] yes=45,no=46,missing=45
					45:leaf=0.00760254
					46:leaf=-0.0167258
				24:[s_wid_cvr_15d<0.00509461] yes=47,no=48,missing=47
					47:leaf=0.00866017
					48:leaf=0.0288509
			12:[sa_wid_good_comm<3669.5] yes=25,no=26,missing=25
				25:[sa_wid_order_stk<52.5] yes=49,no=50,missing=49
					49:leaf=0.172646
					50:leaf=0.126881
				26:[qs_query_wid_ctr_15d<0.0907873] yes=51,no=52,missing=51
					51:leaf=0.109416
					52:leaf=0.0877019
		6:[qs_query_wid_ctr_15d<0.27308] yes=13,no=14,missing=13
			13:[sa_wid_good_comm<87514.5] yes=27,no=28,missing=27
				27:[is_order_by_user<0.5] yes=53,no=54,missing=53
					53:leaf=0.0332252
					54:leaf=0.0939577
				28:[is_order_by_user<0.5] yes=55,no=56,missing=55
					55:leaf=0.0658897
					56:leaf=0.0919284
			14:[qs_query_wid_ctr_15d<0.418759] yes=29,no=30,missing=29
				29:[qs_query_wid_cvr_15d<0.0247636] yes=57,no=58,missing=57
					57:leaf=0.0494205
					58:leaf=0.0638015
				30:[s_cid3_cvr_15d<0.00251646] yes=59,no=60,missing=59
					59:leaf=-0.0530322
					60:leaf=0.0778167
booster[18]:
0:[sa_wid_pv<328.5] yes=1,no=2,missing=1
	1:[bm25_2<2.975] yes=3,no=4,missing=3
		3:[s_wid_ctr_15d<0.0122066] yes=7,no=8,missing=7
			7:[s_shop_ctr_15d<0.138031] yes=15,no=16,missing=15
				15:[s_cid2_ctr_15d<0.579646] yes=31,no=32,missing=31
					31:leaf=-0.108615
					32:leaf=-0.0713382
				16:[s_wid_view_15d<50.5] yes=33,no=34,missing=33
					33:leaf=0.061593
					34:leaf=-0.0625912
			8:[sa_brand_good_ratio_clean<0.985008] yes=17,no=18,missing=17
				17:[s_wid_ctr_15d<0.0359754] yes=35,no=36,missing=35
					35:leaf=-0.0670842
					36:leaf=-0.0191371
				18:[s_brand_cvr_15d<0.00631198] yes=37,no=38,missing=37
					37:leaf=0.0934809
					38:leaf=0.238878
		4:[s_wid_ctr_15d<0.0499879] yes=9,no=10,missing=9
			9:[q_query_view_15d<10292] yes=19,no=20,missing=19
				19:[qs_query_wid_ctr_15d<0.0277888] yes=39,no=40,missing=39
					39:leaf=-0.0385091
					40:leaf=0.0187748
				20:[sa_shop_cvr<0.160038] yes=41,no=42,missing=41
					41:leaf=-0.0715837
					42:leaf=0.12102
			10:[s_shop_cvr_15d<0.00836042] yes=21,no=22,missing=21
				21:[q_query_click_15d<10451] yes=43,no=44,missing=43
					43:leaf=0.0115759
					44:leaf=-0.0459219
				22:[s_cid2_click_15d<2.86463e+06] yes=45,no=46,missing=45
					45:leaf=0.0286431
					46:leaf=0.102585
	2:[qs_query_wid_ctr_15d<0.142845] yes=5,no=6,missing=5
		5:[is_order_by_user<0.5] yes=11,no=12,missing=11
			11:[qs_query_wid_order_15d<14.5] yes=23,no=24,missing=23
				23:[q_query_order_15d<510.5] yes=47,no=48,missing=47
					47:leaf=0.00310287
					48:leaf=-0.0305629
				24:[qs_query_wid_ctr_15d<0.0339224] yes=49,no=50,missing=49
					49:leaf=-0.0358357
					50:leaf=0.0134849
			12:[sa_wid_good_comm<1401.5] yes=25,no=26,missing=25
				25:[qs_query_shop_ctr_15d<0.154332] yes=51,no=52,missing=51
					51:leaf=0.159749
					52:leaf=0.130539
				26:[qs_query_wid_ctr_15d<0.0908688] yes=53,no=54,missing=53
					53:leaf=0.11635
					54:leaf=0.0890962
		6:[qs_query_wid_ctr_15d<0.249988] yes=13,no=14,missing=13
			13:[is_order_by_user<0.5] yes=27,no=28,missing=27
				27:[s_wid_cvr_15d<0.0224139] yes=55,no=56,missing=55
					55:leaf=0.0259746
					56:leaf=0.0463884
				28:[qs_query_brand_click_15d<107931] yes=57,no=58,missing=57
					57:leaf=0.0888219
					58:leaf=0.0286448
			14:[qs_query_wid_ctr_15d<0.414826] yes=29,no=30,missing=29
				29:[qs_query_wid_cvr_15d<0.026751] yes=59,no=60,missing=59
					59:leaf=0.0437214
					60:leaf=0.0576585
				30:[qs_query_wid_ctr_15d<0.762073] yes=61,no=62,missing=61
					61:leaf=0.071949
					62:leaf=0.103673
booster[19]:
0:[sa_wid_pv<1069.5] yes=1,no=2,missing=1
	1:[s_cid2_ctr_15d<0.123034] yes=3,no=4,missing=3
		3:[bm25_12<5.76] yes=7,no=8,missing=7
			7:[s_shop_ctr_15d<0.191735] yes=15,no=16,missing=15
				15:[s_wid_ctr_15d<0.0250285] yes=31,no=32,missing=31
					31:leaf=-0.107836
					32:leaf=-0.0426233
				16:[sa_brand_good_ratio<0.971403] yes=33,no=34,missing=33
					33:leaf=-0.0364271
					34:leaf=0.211457
			8:[sa_wid_pv<152.5] yes=17,no=18,missing=17
				17:[s_shop_view_15d<4.62188e+07] yes=35,no=36,missing=35
					35:leaf=-0.0649258
					36:leaf=0.0370666
				18:[bm25_12<13.08] yes=37,no=38,missing=37
					37:leaf=-0.0219155
					38:leaf=0.0901883
		4:[s_wid_ctr_15d<0.066655] yes=9,no=10,missing=9
			9:[qs_query_wid_ctr_15d<0.0444565] yes=19,no=20,missing=19
				19:[q_query_view_15d<373.5] yes=39,no=40,missing=39
					39:leaf=-0.0182638
					40:leaf=-0.0488115
				20:[sa_wid_cvr<0.0489292] yes=41,no=42,missing=41
					41:leaf=0.0170437
					42:leaf=0.0536372
			10:[sa_wid_cvr<0.099671] yes=21,no=22,missing=21
				21:[q_query_view_15d<23908.5] yes=43,no=44,missing=43
					43:leaf=0.0195091
					44:leaf=-0.0366827
				22:[q_query_view_15d<2810.5] yes=45,no=46,missing=45
					45:leaf=0.0962762
					46:leaf=-0.00525981
	2:[qs_query_wid_ctr_15d<0.142845] yes=5,no=6,missing=5
		5:[is_order_by_user<0.5] yes=11,no=12,missing=11
			11:[s_cid3_view_15d<824678] yes=23,no=24,missing=23
				23:[s_cid2_ctr_15d<0.579292] yes=47,no=48,missing=47
					47:leaf=-0.0188228
					48:leaf=0.00923348
				24:[sa_wid_order_stk<6513] yes=49,no=50,missing=49
					49:leaf=-0.0170834
					50:leaf=0.0170464
			12:[sa_wid_good_comm<1401.5] yes=25,no=26,missing=25
				25:[qs_query_shop_ctr_15d<0.158582] yes=51,no=52,missing=51
					51:leaf=0.149311
					52:leaf=0.12353
				26:[qs_query_brand_ctr_15d<0.144131] yes=53,no=54,missing=53
					53:leaf=0.121205
					54:leaf=0.0961025
		6:[qs_query_wid_ctr_15d<0.249988] yes=13,no=14,missing=13
			13:[is_order_by_user<0.5] yes=27,no=28,missing=27
				27:[qs_query_wid_cvr_15d<0.0378943] yes=55,no=56,missing=55
					55:leaf=0.0244298
					56:leaf=0.0579204
				28:[s_wid_view_15d<669846] yes=57,no=58,missing=57
					57:leaf=0.0859254
					58:leaf=0.023559
			14:[qs_query_wid_ctr_15d<0.348183] yes=29,no=30,missing=29
				29:[is_order_by_user<0.5] yes=59,no=60,missing=59
					59:leaf=0.042775
					60:leaf=0.0929731
				30:[qs_query_wid_ctr_15d<0.490369] yes=61,no=62,missing=61
					61:leaf=0.0581631
					62:leaf=0.078259
booster[20]:
0:[sa_wid_order_stk<3.5] yes=1,no=2,missing=1
	1:[s_cid2_ctr_15d<0.123034] yes=3,no=4,missing=3
		3:[bm25_12<5.445] yes=7,no=8,missing=7
			7:[s_shop_cvr_15d<0.0148382] yes=15,no=16,missing=15
				15:[s_wid_ctr_15d<0.0250285] yes=31,no=32,missing=31
					31:leaf=-0.107084
					32:leaf=-0.021673
				16:[s_cid3_ctr_15d<0.025236] yes=33,no=34,missing=33
					33:leaf=-0.111302
					34:leaf=0.123828
			8:[q_query_ctr_15d<0.505328] yes=17,no=18,missing=17
				17:[s_cid3_view_15d<102718] yes=35,no=36,missing=35
					35:leaf=0.0497679
					36:leaf=-0.0313212
				18:[s_cid2_ctr_15d<0.0996085] yes=37,no=38,missing=37
					37:leaf=-0.100587
					38:leaf=0.00901888
		4:[s_wid_ctr_15d<0.0620051] yes=9,no=10,missing=9
			9:[qs_query_wid_ctr_15d<0.0441278] yes=19,no=20,missing=19
				19:[bm25_12<12.155] yes=39,no=40,missing=39
					39:leaf=-0.0504449
					40:leaf=-0.0250259
				20:[qs_query_brand_view_15d<371554] yes=41,no=42,missing=41
					41:leaf=0.00998874
					42:leaf=0.277424
			10:[qs_query_wid_view_15d<50.5] yes=21,no=22,missing=21
				21:[bm25_2<11.845] yes=43,no=44,missing=43
					43:leaf=0.011915
					44:leaf=0.0603417
				22:[qs_query_wid_ctr_15d<0.0339245] yes=45,no=46,missing=45
					45:leaf=-0.0480336
					46:leaf=0.000123386
	2:[s_wid_ctr_15d<0.105027] yes=5,no=6,missing=5
		5:[bm25_12<9.275] yes=11,no=12,missing=11
			11:[qs_query_wid_order_15d<2.5] yes=23,no=24,missing=23
				23:[qs_query_wid_ctr_15d<0.062511] yes=47,no=48,missing=47
					47:leaf=-0.0361151
					48:leaf=0.0226409
				24:[q_query_view_15d<33255.5] yes=49,no=50,missing=49
					49:leaf=0.0190037
					50:leaf=-0.00858285
			12:[qs_query_wid_ctr_15d<0.0908956] yes=25,no=26,missing=25
				25:[q_query_view_15d<124.5] yes=51,no=52,missing=51
					51:leaf=0.027964
					52:leaf=-0.00290706
				26:[qs_query_wid_ctr_15d<0.277971] yes=53,no=54,missing=53
					53:leaf=0.0258909
					54:leaf=0.0548588
		6:[s_wid_cvr_15d<0.0209286] yes=13,no=14,missing=13
			13:[is_order_by_user<0.5] yes=27,no=28,missing=27
				27:[qs_query_wid_view_15d<50.5] yes=55,no=56,missing=55
					55:leaf=0.0444025
					56:leaf=0.0187459
				28:[s_wid_order_15d<6.5] yes=57,no=58,missing=57
					57:leaf=0.157821
					58:leaf=0.0879663
			14:[q_query_view_15d<137.5] yes=29,no=30,missing=29
				29:[sa_brand_good_ratio_clean<0.971801] yes=59,no=60,missing=59
					59:leaf=0.0905033
					60:leaf=-0.0313589
				30:[qs_query_wid_cvr_15d<0.00661199] yes=61,no=62,missing=61
					61:leaf=-0.00502194
					62:leaf=0.0472048
booster[21]:
0:[qs_query_shop_ctr_15d<0.125013] yes=1,no=2,missing=1
	1:[s_cid2_ctr_15d<0.123034] yes=3,no=4,missing=3
		3:[match_ratio<0.45] yes=7,no=8,missing=7
			7:[qs_query_shop_click_15d<155.5] yes=15,no=16,missing=15
				15:[s_shop_view_15d<4.70008e+07] yes=31,no=32,missing=31
					31:leaf=-0.106271
					32:leaf=0.00653306
				16:leaf=0.109404
			8:[qs_query_wid_ctr_15d<0.0174783] yes=17,no=18,missing=17
				17:[s_cid3_click_15d<4803.5] yes=33,no=34,missing=33
					33:leaf=0.0293815
					34:leaf=-0.0688023
				18:[s_cid3_click_15d<36702.5] yes=35,no=36,missing=35
					35:leaf=-0.037312
					36:leaf=0.0995017
		4:[q_query_ctr_15d<0.231723] yes=9,no=10,missing=9
			9:[bm25_2<17.335] yes=19,no=20,missing=19
				19:[s_wid_order_15d<35.5] yes=37,no=38,missing=37
					37:leaf=-0.00499436
					38:leaf=0.0245402
				20:[s_wid_ctr_15d<0.0400268] yes=39,no=40,missing=39
					39:leaf=0.0220065
					40:leaf=0.0742501
			10:[qs_query_wid_order_15d<0.5] yes=21,no=22,missing=21
				21:[qs_query_wid_ctr_15d<0.0624874] yes=41,no=42,missing=41
					41:leaf=-0.039826
					42:leaf=0.0125155
				22:[qs_query_cid3_ctr_15d<0.0982458] yes=43,no=44,missing=43
					43:leaf=-0.0988303
					44:leaf=-0.00842744
	2:[qs_query_wid_ctr_15d<0.183117] yes=5,no=6,missing=5
		5:[is_order_by_user<0.5] yes=11,no=12,missing=11
			11:[sa_wid_cvr<0.0845953] yes=23,no=24,missing=23
				23:[s_cid3_order_15d<90280] yes=45,no=46,missing=45
					45:leaf=0.00287189
					46:leaf=-0.0245058
				24:[qs_query_wid_ctr_15d<0.0384724] yes=47,no=48,missing=47
					47:leaf=-0.0219566
					48:leaf=0.0238914
			12:[sa_wid_order_stk<371] yes=25,no=26,missing=25
				25:[sa_wid_pv<135.5] yes=49,no=50,missing=49
					49:leaf=0.271297
					50:leaf=0.122209
				26:[qs_query_wid_ctr_15d<0.0907873] yes=51,no=52,missing=51
					51:leaf=0.0975374
					52:leaf=0.0746962
		6:[qs_query_wid_cvr_15d<0.0303479] yes=13,no=14,missing=13
			13:[is_order_by_user<0.5] yes=27,no=28,missing=27
				27:[qs_query_wid_ctr_15d<0.314165] yes=53,no=54,missing=53
					53:leaf=0.0268983
					54:leaf=0.0438479
				28:[qs_query_wid_ctr_15d<0.23595] yes=55,no=56,missing=55
					55:leaf=0.0763467
					56:leaf=0.0942779
			14:[qs_query_wid_ctr_15d<0.292003] yes=29,no=30,missing=29
				29:[qs_query_cid2_cvr_15d<0.204777] yes=57,no=58,missing=57
					57:leaf=0.0489357
					58:leaf=0.0245879
				30:[qs_query_wid_ctr_15d<0.49581] yes=59,no=60,missing=59
					59:leaf=0.05724
					60:leaf=0.0797305
booster[22]:
0:[sa_wid_pv<101.5] yes=1,no=2,missing=1
	1:[bm25_12<2.995] yes=3,no=4,missing=3
		3:[qs_query_cid3_cvr_15d<0.00081744] yes=7,no=8,missing=7
			7:[s_wid_ctr_15d<0.0324939] yes=15,no=16,missing=15
				15:[s_shop_cvr_15d<0.0154491] yes=31,no=32,missing=31
					31:leaf=-0.105554
					32:leaf=0.00777561
				16:[qs_query_cid2_view_15d<51] yes=33,no=34,missing=33
					33:leaf=0.0418754
					34:leaf=-0.120162
			8:[qs_query_brand_view_15d<74995] yes=17,no=18,missing=17
				17:[q_query_view_15d<134] yes=35,no=36,missing=35
					35:leaf=0.174519
					36:leaf=-0.049479
				18:[sa_shop_good_comm<184.5] yes=37,no=38,missing=37
					37:leaf=0.264276
					38:leaf=0.0840422
		4:[s_wid_ctr_15d<0.0256528] yes=9,no=10,missing=9
			9:[s_shop_ctr_15d<0.187267] yes=19,no=20,missing=19
				19:[bm25_2<11.675] yes=39,no=40,missing=39
					39:leaf=-0.0594135
					40:leaf=-0.0332487
				20:[s_wid_view_15d<50.5] yes=41,no=42,missing=41
					41:leaf=0.0841426
					42:leaf=-0.0326061
			10:[is_order_by_user<0.5] yes=21,no=22,missing=21
				21:[bm25_12<13.235] yes=43,no=44,missing=43
					43:leaf=-0.00776207
					44:leaf=0.0208689
				22:[s_cid2_ctr_15d<0.397464] yes=45,no=46,missing=45
					45:leaf=0.143056
					46:leaf=0.28464
	2:[qs_query_wid_ctr_15d<0.142845] yes=5,no=6,missing=5
		5:[is_order_by_user<0.5] yes=11,no=12,missing=11
			11:[qs_query_wid_order_15d<6.5] yes=23,no=24,missing=23
				23:[q_query_order_15d<263.5] yes=47,no=48,missing=47
					47:leaf=0.00356778
					48:leaf=-0.0288448
				24:[q_query_click_15d<25503.5] yes=49,no=50,missing=49
					49:leaf=0.0212841
					50:leaf=-0.00121158
			12:[qs_query_shop_ctr_15d<0.134264] yes=25,no=26,missing=25
				25:[sa_wid_addcart<1021.5] yes=51,no=52,missing=51
					51:leaf=0.170473
					52:leaf=0.120727
				26:[sa_wid_good_comm<3306.5] yes=53,no=54,missing=53
					53:leaf=0.107173
					54:leaf=0.0825889
		6:[qs_query_wid_ctr_15d<0.250201] yes=13,no=14,missing=13
			13:[s_cid2_ctr_15d<0.571945] yes=27,no=28,missing=27
				27:[s_cid2_view_15d<789996] yes=55,no=56,missing=55
					55:leaf=0.0360857
					56:leaf=-0.0166567
				28:[qs_query_cid2_ctr_15d<0.648816] yes=57,no=58,missing=57
					57:leaf=0.0369426
					58:leaf=0.0178
			14:[qs_query_wid_cvr_15d<0.0421009] yes=29,no=30,missing=29
				29:[is_order_by_user<0.5] yes=59,no=60,missing=59
					59:leaf=0.0351148
					60:leaf=0.0892244
				30:[qs_query_wid_ctr_15d<0.516417] yes=61,no=62,missing=61
					61:leaf=0.0533253
					62:leaf=0.080292
booster[23]:
0:[s_cid3_ctr_15d<0.0654071] yes=1,no=2,missing=1
	1:[s_shop_ctr_15d<0.15379] yes=3,no=4,missing=3
		3:[bm25_12<6.385] yes=7,no=8,missing=7
			7:[qs_query_shop_ctr_15d<0.0297146] yes=15,no=16,missing=15
				15:[s_wid_ctr_15d<0.0319158] yes=31,no=32,missing=31
					31:leaf=-0.10514
					32:leaf=-0.0480915
				16:leaf=0.0184263
			8:[s_shop_order_15d<24.5] yes=17,no=18,missing=17
				17:[s_cid3_order_15d<22.5] yes=33,no=34,missing=33
					33:leaf=0.000333981
					34:leaf=-0.117117
				18:[q_query_click_15d<8.5] yes=35,no=36,missing=35
					35:leaf=0.0330347
					36:leaf=-0.0774617
		4:[q_query_ctr_15d<0.273878] yes=9,no=10,missing=9
			9:[s_cid3_ctr_15d<0.0245307] yes=19,no=20,missing=19
				19:[text_weight<159] yes=37,no=38,missing=37
					37:leaf=-0.0489215
					38:leaf=0.146234
				20:[s_brand_cvr_15d<0.00692683] yes=39,no=40,missing=39
					39:leaf=0.0644818
					40:leaf=0.244852
			10:[sa_wid_pv<1819.5] yes=21,no=22,missing=21
				21:[s_wid_view_15d<132.5] yes=41,no=42,missing=41
					41:leaf=-0.00601863
					42:leaf=-0.103051
				22:[sa_wid_good_ratio_clean<0.973196] yes=43,no=44,missing=43
					43:leaf=0.0622863
					44:leaf=0.17246
	2:[s_wid_ctr_15d<0.11114] yes=5,no=6,missing=5
		5:[qs_query_wid_order_15d<1.5] yes=11,no=12,missing=11
			11:[q_query_order_15d<48.5] yes=23,no=24,missing=23
				23:[bm25_2<14.905] yes=45,no=46,missing=45
					45:leaf=-0.0051361
					46:leaf=0.0250817
				24:[qs_query_wid_ctr_15d<0.0624886] yes=47,no=48,missing=47
					47:leaf=-0.0335605
					48:leaf=0.0137826
			12:[q_query_order_15d<1549] yes=25,no=26,missing=25
				25:[q_query_order_15d<300.5] yes=49,no=50,missing=49
					49:leaf=0.0307659
					50:leaf=0.0137981
				26:[qs_query_wid_order_15d<25.5] yes=51,no=52,missing=51
					51:leaf=-0.0216342
					52:leaf=0.00346876
		6:[s_wid_ctr_15d<0.212846] yes=13,no=14,missing=13
			13:[qs_query_wid_view_15d<101.5] yes=27,no=28,missing=27
				27:[bm25_12<6.515] yes=53,no=54,missing=53
					53:leaf=-0.00882961
					54:leaf=0.0552684
				28:[qs_query_wid_ctr_15d<0.0544327] yes=55,no=56,missing=55
					55:leaf=-0.0472021
					56:leaf=0.0191599
			14:[qs_query_wid_ctr_15d<0.00237005] yes=29,no=30,missing=29
				29:[q_query_ctr_15d<0.778586] yes=57,no=58,missing=57
					57:leaf=0.0770949
					58:leaf=0.144725
				30:[qs_query_wid_cvr_15d<0.00736456] yes=59,no=60,missing=59
					59:leaf=-0.00121601
					60:leaf=0.0414625
booster[24]:
0:[s_cid2_ctr_15d<0.123034] yes=1,no=2,missing=1
	1:[s_wid_ctr_15d<0.0222596] yes=3,no=4,missing=3
		3:[bm25_2<5.115] yes=7,no=8,missing=7
			7:[s_shop_view_15d<4.00261e+07] yes=15,no=16,missing=15
				15:[sa_wid_cvr<0.0381814] yes=31,no=32,missing=31
					31:leaf=-0.104623
					32:leaf=0.015411
				16:[s_cid3_view_15d<146043] yes=33,no=34,missing=33
					33:leaf=0.13164
					34:leaf=-0.112355
			8:[q_query_ctr_15d<0.365473] yes=17,no=18,missing=17
				17:[s_shop_click_15d<33044] yes=35,no=36,missing=35
					35:leaf=-0.0443539
					36:leaf=0.0588002
				18:[s_cid2_ctr_15d<0.10343] yes=37,no=38,missing=37
					37:leaf=-0.0961156
					38:leaf=0.117794
		4:[s_cid2_click_15d<1.03337e+06] yes=9,no=10,missing=9
			9:[s_cid3_cvr_15d<0.00729638] yes=19,no=20,missing=19
				19:[s_brand_ctr_15d<0.0389432] yes=39,no=40,missing=39
					39:leaf=-0.0372549
					40:leaf=0.0390131
				20:[s_wid_cvr_15d<0.042076] yes=41,no=42,missing=41
					41:leaf=-0.0610246
					42:leaf=0.081357
			10:[sa_shop_bad_ratio<0.00921422] yes=21,no=22,missing=21
				21:[sa_wid_good_ratio<0.871774] yes=43,no=44,missing=43
					43:leaf=0.017007
					44:leaf=-0.0931135
				22:[sa_brand_addcart<1281.5] yes=45,no=46,missing=45
					45:leaf=0.276629
					46:leaf=0.0851858
	2:[qs_query_wid_order_15d<4.5] yes=5,no=6,missing=5
		5:[q_query_order_15d<145.5] yes=11,no=12,missing=11
			11:[s_wid_order_15d<3.5] yes=23,no=24,missing=23
				23:[qs_query_wid_ctr_15d<0.0384726] yes=47,no=48,missing=47
					47:leaf=-0.0187976
					48:leaf=0.0168283
				24:[match_ratio<0.73] yes=49,no=50,missing=49
					49:leaf=-0.00573489
					50:leaf=0.0216413
			12:[qs_query_wid_click_15d<24.5] yes=25,no=26,missing=25
				25:[qs_query_wid_ctr_15d<0.0263014] yes=51,no=52,missing=51
					51:leaf=-0.0581442
					52:leaf=0.000461208
				26:[qs_query_wid_view_15d<2593.5] yes=53,no=54,missing=53
					53:leaf=0.00295743
					54:leaf=-0.0258707
		6:[q_query_click_15d<23994] yes=13,no=14,missing=13
			13:[qs_query_wid_ctr_15d<0.0253424] yes=27,no=28,missing=27
				27:[qs_query_wid_order_15d<23.5] yes=55,no=56,missing=55
					55:leaf=-0.0462816
					56:leaf=0.00811295
				28:[s_cid2_ctr_15d<0.579292] yes=57,no=58,missing=57
					57:leaf=-0.000248631
					58:leaf=0.0253926
			14:[qs_query_wid_ctr_15d<0.0568939] yes=29,no=30,missing=29
				29:[qs_query_wid_ctr_15d<0.0146666] yes=59,no=60,missing=59
					59:leaf=-0.0890977
					60:leaf=-0.014551
				30:[qs_query_wid_order_15d<454.5] yes=61,no=62,missing=61
					61:leaf=0.00896173
					62:leaf=0.0232349
booster[25]:
0:[s_cid3_ctr_15d<0.0654071] yes=1,no=2,missing=1
	1:[s_shop_ctr_15d<0.0881019] yes=3,no=4,missing=3
		3:[qs_query_shop_click_15d<6.5] yes=7,no=8,missing=7
			7:[bm25_12<4.885] yes=15,no=16,missing=15
				15:leaf=-0.104208
				16:[sa_shop_follow<512] yes=31,no=32,missing=31
					31:leaf=-0.117144
					32:leaf=-0.050317
			8:[sa_wid_pv<150] yes=17,no=18,missing=17
				17:leaf=-0.0741879
				18:leaf=0.119184
		4:[s_cid3_cvr_15d<0.00992106] yes=9,no=10,missing=9
			9:[bm25_12<29.28] yes=19,no=20,missing=19
				19:[qs_query_shop_view_15d<845.5] yes=33,no=34,missing=33
					33:leaf=-0.0194407
					34:leaf=-0.102166
				20:leaf=0.194908
			10:[s_shop_ctr_15d<0.194301] yes=21,no=22,missing=21
				21:leaf=0.126854
				22:leaf=0.229002
	2:[s_wid_ctr_15d<0.11114] yes=5,no=6,missing=5
		5:[is_order_by_user<0.5] yes=11,no=12,missing=11
			11:[is_follow_by_user<0.5] yes=23,no=24,missing=23
				23:[qs_query_wid_order_15d<0.5] yes=35,no=36,missing=35
					35:leaf=-0.014262
					36:leaf=0.000622831
				24:[qs_query_wid_ctr_15d<0.0628508] yes=37,no=38,missing=37
					37:leaf=0.214414
					38:leaf=0.140031
			12:[qs_query_shop_ctr_15d<0.135023] yes=25,no=26,missing=25
				25:[sa_wid_pv<179] yes=39,no=40,missing=39
					39:leaf=0.279688
					40:leaf=0.123387
				26:[sa_wid_good_comm<1047] yes=41,no=42,missing=41
					41:leaf=0.109008
					42:leaf=0.0831783
		6:[qs_query_wid_view_15d<50.5] yes=13,no=14,missing=13
			13:[bm25_12<11.505] yes=27,no=28,missing=27
				27:[s_wid_ctr_15d<0.181707] yes=43,no=44,missing=43
					43:leaf=0.0127248
					44:leaf=0.0557273
				28:[qs_query_brand_ctr_15d<0.364034] yes=45,no=46,missing=45
					45:leaf=0.0586469
					46:leaf=0.115271
			14:[qs_query_wid_ctr_15d<0.0362162] yes=29,no=30,missing=29
				29:[qs_query_wid_ctr_15d<0.0185825] yes=47,no=48,missing=47
					47:leaf=-0.097713
					48:leaf=-0.0549394
				30:[qs_query_wid_ctr_15d<0.288801] yes=49,no=50,missing=49
					49:leaf=0.0152882
					50:leaf=0.0405626
booster[26]:
0:[s_cid2_ctr_15d<0.123034] yes=1,no=2,missing=1
	1:[match_ratio<0.45] yes=3,no=4,missing=3
		3:[s_shop_ctr_15d<0.164236] yes=7,no=8,missing=7
			7:[qs_query_cid2_order_15d<5.5] yes=15,no=16,missing=15
				15:[sa_shop_order_stk<50237] yes=31,no=32,missing=31
					31:leaf=-0.103778
					32:leaf=-0.0553612
				16:leaf=-0.0308628
			8:[s_cid3_order_15d<19313.5] yes=17,no=18,missing=17
				17:[s_cid3_cvr_15d<0.0085692] yes=33,no=34,missing=33
					33:leaf=0.00203956
					34:leaf=-0.142679
				18:leaf=0.132649
		4:[q_query_ctr_15d<0.366605] yes=9,no=10,missing=9
			9:[sa_brand_pv<814130] yes=19,no=20,missing=19
				19:[sa_brand_bad_ratio<0.00919922] yes=35,no=36,missing=35
					35:leaf=-0.0970296
					36:leaf=-0.016761
				20:[bm25_2<23.855] yes=37,no=38,missing=37
					37:leaf=0.0264399
					38:leaf=0.204176
			10:[qs_query_wid_ctr_15d<0.049074] yes=21,no=22,missing=21
				21:[q_query_ctr_15d<0.818111] yes=39,no=40,missing=39
					39:leaf=-0.0793615
					40:leaf=0.101924
				22:[s_brand_ctr_15d<0.0410801] yes=41,no=42,missing=41
					41:leaf=-0.0885737
					42:leaf=0.0976797
	2:[sa_wid_order_stk<2184.5] yes=5,no=6,missing=5
		5:[s_cid3_order_15d<42431] yes=11,no=12,missing=11
			11:[text_weight<206.5] yes=23,no=24,missing=23
				23:[qs_query_wid_order_15d<0.5] yes=43,no=44,missing=43
					43:leaf=-0.0182237
					44:leaf=0.00318015
				24:[s_cid2_ctr_15d<0.541233] yes=45,no=46,missing=45
					45:leaf=-0.010802
					46:leaf=0.0145744
			12:[qs_query_wid_ctr_15d<0.0624898] yes=25,no=26,missing=25
				25:[q_query_view_15d<177.5] yes=47,no=48,missing=47
					47:leaf=-0.00162825
					48:leaf=-0.0352566
				26:[qs_query_cid2_click_15d<6744.5] yes=49,no=50,missing=49
					49:leaf=0.0261484
					50:leaf=0.00607985
		6:[qs_query_wid_ctr_15d<0.0714091] yes=13,no=14,missing=13
			13:[q_query_view_15d<212.5] yes=27,no=28,missing=27
				27:[bm25_12<6.205] yes=51,no=52,missing=51
					51:leaf=-0.0207928
					52:leaf=0.0480169
				28:[qs_query_wid_ctr_15d<0.0165628] yes=53,no=54,missing=53
					53:leaf=-0.0744065
					54:leaf=-0.00100117
			14:[qs_query_wid_ctr_15d<0.217115] yes=29,no=30,missing=29
				29:[qs_query_cid2_ctr_15d<0.701585] yes=55,no=56,missing=55
					55:leaf=0.0219741
					56:leaf=0.0100346
				30:[qs_query_wid_cvr_15d<0.042095] yes=57,no=58,missing=57
					57:leaf=0.0277929
					58:leaf=0.0461717
booster[27]:
0:[s_cid3_ctr_15d<0.0654071] yes=1,no=2,missing=1
	1:[bm25_12<6.13] yes=3,no=4,missing=3
		3:[s_shop_order_15d<8836.5] yes=7,no=8,missing=7
			7:[sa_wid_cvr<0.0254847] yes=15,no=16,missing=15
				15:[bm25_12<4.885] yes=31,no=32,missing=31
					31:leaf=-0.103376
					32:leaf=-0.0696554
				16:leaf=-0.0127797
			8:[s_cid3_ctr_15d<0.0264221] yes=17,no=18,missing=17
				17:[s_cid3_view_15d<1.76965e+06] yes=33,no=34,missing=33
					33:leaf=-0.111665
					34:leaf=-0.00386454
				18:leaf=0.136849
		4:[s_cid2_order_15d<102538] yes=9,no=10,missing=9
			9:[qs_query_wid_click_15d<11.5] yes=19,no=20,missing=19
				19:[q_query_view_15d<104] yes=35,no=36,missing=35
					35:leaf=-0.0105044
					36:leaf=-0.0911515
				20:[sa_brand_bad_ratio<0.00990714] yes=37,no=38,missing=37
					37:leaf=-0.038401
					38:leaf=0.105568
			10:[s_shop_click_15d<100307] yes=21,no=22,missing=21
				21:[sa_shop_pv<18787] yes=39,no=40,missing=39
					39:leaf=0.174688
					40:leaf=-0.0975447
				22:[bm25_12<11.605] yes=41,no=42,missing=41
					41:leaf=0.155766
					42:leaf=0.296011
	2:[qs_query_shop_ctr_15d<0.366921] yes=5,no=6,missing=5
		5:[is_order_by_user<0.5] yes=11,no=12,missing=11
			11:[is_follow_by_user<0.5] yes=23,no=24,missing=23
				23:[s_cid3_view_15d<330822] yes=43,no=44,missing=43
					43:leaf=0.00570762
					44:leaf=-0.00913187
				24:[sa_wid_order_stk<218] yes=45,no=46,missing=45
					45:leaf=0.224539
					46:leaf=0.139679
			12:[sa_wid_order_stk<153.5] yes=25,no=26,missing=25
				25:[sa_wid_pv<122] yes=47,no=48,missing=47
					47:leaf=0.24014
					48:leaf=0.135345
				26:[sa_wid_order_stk<2440.5] yes=49,no=50,missing=49
					49:leaf=0.102717
					50:leaf=0.0760729
		6:[qs_query_cid3_ctr_15d<0.255227] yes=13,no=14,missing=13
			13:[sa_brand_pv<1.08761e+06] yes=27,no=28,missing=27
				27:[s_wid_ctr_15d<0.0286251] yes=51,no=52,missing=51
					51:leaf=-0.0955028
					52:leaf=0.0347133
				28:[sa_wid_pv<108702] yes=53,no=54,missing=53
					53:leaf=-0.0664035
					54:leaf=-0.00400724
			14:[qs_query_wid_ctr_15d<0.240927] yes=29,no=30,missing=29
				29:[q_query_ctr_15d<0.984576] yes=55,no=56,missing=55
					55:leaf=0.0104199
					56:leaf=0.147232
				30:[qs_query_wid_ctr_15d<0.435758] yes=57,no=58,missing=57
					57:leaf=0.0288564
					58:leaf=0.05793
booster[28]:
0:[s_cid3_ctr_15d<0.0654071] yes=1,no=2,missing=1
	1:[bm25_2<5.595] yes=3,no=4,missing=3
		3:[s_shop_cvr_15d<0.0151377] yes=7,no=8,missing=7
			7:[s_wid_ctr_15d<0.0327084] yes=15,no=16,missing=15
				15:[match_ratio<0.835] yes=29,no=30,missing=29
					29:leaf=-0.103105
					30:leaf=-0.0412416
				16:leaf=-0.0337571
			8:[s_cid3_ctr_15d<0.0235301] yes=17,no=18,missing=17
				17:[s_cid3_view_15d<2.90988e+06] yes=31,no=32,missing=31
					31:leaf=-0.115271
					32:leaf=0.0201937
				18:[sa_brand_order_stk<5.06449e+06] yes=33,no=34,missing=33
					33:leaf=0.222166
					34:leaf=-0.00188599
		4:[bm25_2<30.865] yes=9,no=10,missing=9
			9:[s_cid2_order_15d<157300] yes=19,no=20,missing=19
				19:[bm25_12<6.765] yes=35,no=36,missing=35
					35:leaf=0.0773416
					36:leaf=-0.0363236
				20:leaf=0.149269
			10:leaf=0.185045
	2:[is_order_by_user<0.5] yes=5,no=6,missing=5
		5:[s_cid2_ctr_15d<0.579292] yes=11,no=12,missing=11
			11:[s_cid2_view_15d<826145] yes=21,no=22,missing=21
				21:[s_wid_ctr_15d<0.0212986] yes=37,no=38,missing=37
					37:leaf=-0.0303113
					38:leaf=0.0294738
				22:[qs_query_wid_ctr_15d<0.0588346] yes=39,no=40,missing=39
					39:leaf=-0.030678
					40:leaf=-0.00289581
			12:[sa_wid_cvr<0.0760769] yes=23,no=24,missing=23
				23:[s_cid3_order_15d<42630.5] yes=41,no=42,missing=41
					41:leaf=0.00237106
					42:leaf=-0.0166095
				24:[q_query_order_15d<79.5] yes=43,no=44,missing=43
					43:leaf=0.0375247
					44:leaf=0.0119154
		6:[qs_query_shop_ctr_15d<0.128991] yes=13,no=14,missing=13
			13:[sa_wid_good_ratio_clean<0.916405] yes=25,no=26,missing=25
				25:[s_wid_click_15d<3.5] yes=45,no=46,missing=45
					45:leaf=0.22854
					46:leaf=0.138809
				26:[s_cid2_ctr_15d<0.579479] yes=47,no=48,missing=47
					47:leaf=0.064673
					48:leaf=0.108318
			14:[s_wid_order_15d<84.5] yes=27,no=28,missing=27
				27:[sa_shop_cvr<0.135418] yes=49,no=50,missing=49
					49:leaf=0.0972346
					50:leaf=-0.127821
				28:[qs_query_cid2_ctr_15d<0.620824] yes=51,no=52,missing=51
					51:leaf=0.0589165
					52:leaf=0.0783694
booster[29]:
0:[s_cid3_ctr_15d<0.0654071] yes=1,no=2,missing=1
	1:[bm25_12<5.545] yes=3,no=4,missing=3
		3:[s_shop_cvr_15d<0.0171332] yes=7,no=8,missing=7
			7:[qs_query_cid2_cvr_15d<0.00121547] yes=15,no=16,missing=15
				15:[s_wid_ctr_15d<0.0362231] yes=29,no=30,missing=29
					29:leaf=-0.102733
					30:leaf=-0.0277156
				16:leaf=-0.0142367
			8:[s_shop_click_15d<72557] yes=17,no=18,missing=17
				17:leaf=0.134991
				18:leaf=-0.0320508
		4:[s_cid3_cvr_15d<0.00935967] yes=9,no=10,missing=9
			9:[q_query_ctr_15d<0.156904] yes=19,no=20,missing=19
				19:[s_shop_ctr_15d<0.0355192] yes=31,no=32,missing=31
					31:leaf=0.0780128
					32:leaf=-0.0283192
				20:[sa_wid_pv<1802.5] yes=33,no=34,missing=33
					33:leaf=-0.0718981
					34:leaf=0.102896
			10:leaf=0.139163
	2:[qs_query_shop_ctr_15d<0.137921] yes=5,no=6,missing=5
		5:[q_query_ctr_15d<0.227639] yes=11,no=12,missing=11
			11:[match_ratio<0.795] yes=21,no=22,missing=21
				21:[bm25_12<6.215] yes=35,no=36,missing=35
					35:leaf=-0.0255038
					36:leaf=0.00571416
				22:[s_wid_order_15d<33.5] yes=37,no=38,missing=37
					37:leaf=0.0132134
					38:leaf=0.055031
			12:[qs_query_cid3_ctr_15d<0.164214] yes=23,no=24,missing=23
				23:[qs_query_wid_ctr_15d<0.0341986] yes=39,no=40,missing=39
					39:leaf=-0.0669688
					40:leaf=0.0103353
				24:[qs_query_brand_ctr_15d<0.0952492] yes=41,no=42,missing=41
					41:leaf=-0.0208392
					42:leaf=-0.00181814
		6:[qs_query_wid_ctr_15d<0.189154] yes=13,no=14,missing=13
			13:[is_follow_by_user<0.5] yes=25,no=26,missing=25
				25:[qs_query_cid3_ctr_15d<0.181999] yes=43,no=44,missing=43
					43:leaf=-0.0392023
					44:leaf=0.00410868
				26:[qs_query_wid_ctr_15d<0.0911241] yes=45,no=46,missing=45
					45:leaf=0.149693
					46:leaf=0.100335
			14:[qs_query_wid_ctr_15d<0.350552] yes=27,no=28,missing=27
				27:[s_cid2_ctr_15d<0.579292] yes=47,no=48,missing=47
					47:leaf=-0.00658549
					48:leaf=0.0213695
				28:[qs_query_wid_ctr_15d<0.573281] yes=49,no=50,missing=49
					49:leaf=0.0380299
					50:leaf=0.0712288
booster[30]:
0:[s_cid3_ctr_15d<0.0654071] yes=1,no=2,missing=1
	1:[bm25_12<5.455] yes=3,no=4,missing=3
		3:[sa_shop_order_stk<76345] yes=7,no=8,missing=7
			7:[s_shop_ctr_15d<0.191735] yes=15,no=16,missing=15
				15:[bm25_12<4.865] yes=29,no=30,missing=29
					29:leaf=-0.102469
					30:leaf=-0.057652
				16:[s_cid2_order_15d<904.5] yes=31,no=32,missing=31
					31:leaf=0.0551775
					32:leaf=-0.116468
			8:leaf=0.0315988
		4:[text_weight<241.5] yes=9,no=10,missing=9
			9:[bm25_12<37.635] yes=17,no=18,missing=17
				17:[sa_wid_order_stk<15.5] yes=33,no=34,missing=33
					33:leaf=-0.0456756
					34:leaf=0.0519761
				18:leaf=0.177885
			10:[s_cid2_cvr_15d<0.0105062] yes=19,no=20,missing=19
				19:leaf=0.0425977
				20:leaf=0.280769
	2:[qs_query_wid_order_15d<9.5] yes=5,no=6,missing=5
		5:[q_query_order_15d<1123.5] yes=11,no=12,missing=11
			11:[bm25_2<8.065] yes=21,no=22,missing=21
				21:[qs_query_wid_ctr_15d<0.0588337] yes=35,no=36,missing=35
					35:leaf=-0.0197675
					36:leaf=0.0202007
				22:[q_query_view_15d<496.5] yes=37,no=38,missing=37
					37:leaf=0.0159088
					38:leaf=-0.00114726
			12:[s_wid_order_15d<96.5] yes=23,no=24,missing=23
				23:[qs_query_wid_click_15d<24.5] yes=39,no=40,missing=39
					39:leaf=-0.0437085
					40:leaf=-0.0143876
				24:[qs_query_wid_ctr_15d<0.0291117] yes=41,no=42,missing=41
					41:leaf=-0.0774848
					42:leaf=-0.0289571
		6:[q_query_order_15d<5193] yes=13,no=14,missing=13
			13:[qs_query_wid_ctr_15d<0.038389] yes=25,no=26,missing=25
				25:[text_weight<102.5] yes=43,no=44,missing=43
					43:leaf=0.017332
					44:leaf=-0.0161352
				26:[s_cid2_ctr_15d<0.579292] yes=45,no=46,missing=45
					45:leaf=-0.000461931
					46:leaf=0.0199139
			14:[qs_query_wid_ctr_15d<0.0504323] yes=27,no=28,missing=27
				27:[qs_query_wid_ctr_15d<0.0220936] yes=47,no=48,missing=47
					47:leaf=-0.059721
					48:leaf=-0.0135307
				28:[qs_query_wid_order_15d<407.5] yes=49,no=50,missing=49
					49:leaf=0.0017267
					50:leaf=0.0166226
booster[31]:
0:[s_cid3_ctr_15d<0.0654071] yes=1,no=2,missing=1
	1:[s_shop_ctr_15d<0.131419] yes=3,no=4,missing=3
		3:[match_ratio<0.45] yes=7,no=8,missing=7
			7:[s_wid_click_15d<9.5] yes=15,no=16,missing=15
				15:leaf=-0.10227
				16:leaf=-0.0607027
			8:[q_query_ctr_15d<0.354705] yes=17,no=18,missing=17
				17:[s_cid2_ctr_15d<0.00454038] yes=31,no=32,missing=31
					31:leaf=0.116142
					32:leaf=-0.0389649
				18:[s_cid2_view_15d<1.55242e+06] yes=33,no=34,missing=33
					33:leaf=-0.00149941
					34:leaf=-0.0938208
		4:[s_shop_ctr_15d<0.166206] yes=9,no=10,missing=9
			9:[s_shop_click_15d<54821.5] yes=19,no=20,missing=19
				19:leaf=0.0357435
				20:leaf=0.236055
			10:[qs_query_shop_ctr_15d<0.124439] yes=21,no=22,missing=21
				21:[s_cid2_ctr_15d<0.0608678] yes=35,no=36,missing=35
					35:leaf=0.000793263
					36:leaf=0.115696
				22:leaf=-0.131234
	2:[is_order_by_user<0.5] yes=5,no=6,missing=5
		5:[is_follow_by_user<0.5] yes=11,no=12,missing=11
			11:[qs_query_wid_order_15d<1.5] yes=23,no=24,missing=23
				23:[q_query_view_15d<941.5] yes=37,no=38,missing=37
					37:leaf=0.00496252
					38:leaf=-0.0198925
				24:[q_query_order_15d<1123.5] yes=39,no=40,missing=39
					39:leaf=0.0163768
					40:leaf=-0.00110878
			12:[qs_query_wid_ctr_15d<0.0786593] yes=25,no=26,missing=25
				25:[sa_wid_addcart<9532.5] yes=41,no=42,missing=41
					41:leaf=0.191537
					42:leaf=0.133151
				26:[qs_query_wid_ctr_15d<0.125781] yes=43,no=44,missing=43
					43:leaf=0.120842
					44:leaf=0.0852742
		6:[qs_query_shop_ctr_15d<0.135428] yes=13,no=14,missing=13
			13:[sa_wid_addcart<788.5] yes=27,no=28,missing=27
				27:[sa_wid_pv<317.5] yes=45,no=46,missing=45
					45:leaf=0.185193
					46:leaf=0.130826
				28:[sa_wid_addcart<25014] yes=47,no=48,missing=47
					47:leaf=0.106851
					48:leaf=0.0794925
			14:[sa_wid_good_comm<3795.5] yes=29,no=30,missing=29
				29:[sa_shop_cvr<0.102515] yes=49,no=50,missing=49
					49:leaf=0.0886743
					50:leaf=0.0403974
				30:[sa_wid_follow<1013.5] yes=51,no=52,missing=51
					51:leaf=-0.0601148
					52:leaf=0.0672636
booster[32]:
0:[s_cid2_ctr_15d<0.579292] yes=1,no=2,missing=1
	1:[bm25_2<2.645] yes=3,no=4,missing=3
		3:[qs_query_wid_ctr_15d<0.021254] yes=7,no=8,missing=7
			7:[qs_query_cid2_ctr_15d<0.163067] yes=15,no=16,missing=15
				15:[text_weight<0.5] yes=31,no=32,missing=31
					31:leaf=-0.0436297
					32:leaf=-0.100711
				16:[sa_wid_cvr<0.0242077] yes=33,no=34,missing=33
					33:leaf=-0.00725448
					34:leaf=-0.072226
			8:[qs_query_wid_ctr_15d<0.0550636] yes=17,no=18,missing=17
				17:[sa_brand_bad_ratio<0.00505574] yes=35,no=36,missing=35
					35:leaf=0.161287
					36:leaf=-0.026206
				18:[qs_query_wid_order_15d<15.5] yes=37,no=38,missing=37
					37:leaf=0.00146608
					38:leaf=0.0498632
		4:[s_cid2_view_15d<854066] yes=9,no=10,missing=9
			9:[q_query_view_15d<41216.5] yes=19,no=20,missing=19
				19:[s_wid_ctr_15d<0.0203513] yes=39,no=40,missing=39
					39:leaf=-0.0131588
					40:leaf=0.0363928
				20:[s_cid3_ctr_15d<0.509183] yes=41,no=42,missing=41
					41:leaf=-0.0983689
					42:leaf=-5.94458e-05
			10:[qs_query_wid_ctr_15d<0.0476082] yes=21,no=22,missing=21
				21:[q_query_click_15d<74184] yes=43,no=44,missing=43
					43:leaf=-0.0241219
					44:leaf=-0.0720094
				22:[sa_wid_order_stk<139.5] yes=45,no=46,missing=45
					45:leaf=0.0114053
					46:leaf=-0.0103177
	2:[sa_wid_cvr<0.090415] yes=5,no=6,missing=5
		5:[s_cid3_order_15d<38521.5] yes=11,no=12,missing=11
			11:[is_order_by_user<0.5] yes=23,no=24,missing=23
				23:[is_follow_by_user<0.5] yes=47,no=48,missing=47
					47:leaf=0.00282753
					48:leaf=0.128794
				24:[sa_wid_order_stk<237] yes=49,no=50,missing=49
					49:leaf=0.114289
					50:leaf=0.0761473
			12:[qs_query_wid_ctr_15d<0.0638416] yes=25,no=26,missing=25
				25:[bm25_2<16.985] yes=51,no=52,missing=51
					51:leaf=-0.0213176
					52:leaf=0.0214989
				26:[s_wid_click_15d<2914] yes=53,no=54,missing=53
					53:leaf=0.0262211
					54:leaf=0.00499708
		6:[s_cid3_ctr_15d<0.290199] yes=13,no=14,missing=13
			13:[s_wid_view_15d<2168] yes=27,no=28,missing=27
				27:[qs_query_cid2_view_15d<205.5] yes=55,no=56,missing=55
					55:leaf=0.114285
					56:leaf=0.0650895
				28:[sa_brand_bad_ratio<0.0284608] yes=57,no=58,missing=57
					57:leaf=0.0469538
					58:leaf=0.107269
			14:[s_wid_ctr_15d<0.0278171] yes=29,no=30,missing=29
				29:[qs_query_wid_ctr_15d<0.0188936] yes=59,no=60,missing=59
					59:leaf=-0.0545054
					60:leaf=-0.00464474
				30:[s_cid3_ctr_15d<0.668373] yes=61,no=62,missing=61
					61:leaf=0.0190596
					62:leaf=-0.00134133
booster[33]:
0:[s_cid3_ctr_15d<0.057418] yes=1,no=2,missing=1
	1:[bm25_12<5.515] yes=3,no=4,missing=3
		3:[s_shop_order_15d<8836.5] yes=7,no=8,missing=7
			7:[sa_wid_order_stk<10.5] yes=15,no=16,missing=15
				15:[s_wid_ctr_15d<0.00902381] yes=31,no=32,missing=31
					31:leaf=-0.101849
					32:leaf=-0.0579847
				16:leaf=-0.0162447
			8:[s_cid3_ctr_15d<0.0263728] yes=17,no=18,missing=17
				17:leaf=-0.0605365
				18:leaf=0.146309
		4:[text_weight<238.5] yes=9,no=10,missing=9
			9:[s_cid3_view_15d<1.9368e+06] yes=19,no=20,missing=19
				19:[sa_shop_order_stk<12430] yes=33,no=34,missing=33
					33:leaf=-0.0116148
					34:leaf=0.0745582
				20:[s_cid3_view_15d<1.26551e+07] yes=35,no=36,missing=35
					35:leaf=-0.0935451
					36:leaf=0.0635855
			10:[s_cid2_cvr_15d<0.00370172] yes=21,no=22,missing=21
				21:leaf=-0.000169223
				22:leaf=0.182351
	2:[is_order_by_user<0.5] yes=5,no=6,missing=5
		5:[qs_query_wid_order_15d<69.5] yes=11,no=12,missing=11
			11:[q_query_order_15d<1549] yes=23,no=24,missing=23
				23:[qs_query_wid_order_15d<0.5] yes=37,no=38,missing=37
					37:leaf=-0.00459865
					38:leaf=0.00995649
				24:[qs_query_shop_ctr_15d<0.0505757] yes=39,no=40,missing=39
					39:leaf=-0.0423572
					40:leaf=-0.011969
			12:[qs_query_wid_ctr_15d<0.0390236] yes=25,no=26,missing=25
				25:[q_query_click_15d<60639] yes=41,no=42,missing=41
					41:leaf=0.0132843
					42:leaf=-0.0280344
				26:[qs_query_cid2_order_15d<6035.5] yes=43,no=44,missing=43
					43:leaf=0.0181872
					44:leaf=0.00664858
		6:[sa_wid_addcart<586] yes=13,no=14,missing=13
			13:[s_brand_ctr_15d<0.0593962] yes=27,no=28,missing=27
				27:[bm25_12<14.09] yes=45,no=46,missing=45
					45:leaf=0.18002
					46:leaf=0.0745093
				28:[bm25_12<7.215] yes=47,no=48,missing=47
					47:leaf=0.0505396
					48:leaf=0.122649
			14:[s_wid_ctr_15d<0.0550901] yes=29,no=30,missing=29
				29:[sa_wid_good_comm<22172.5] yes=49,no=50,missing=49
					49:leaf=0.0880236
					50:leaf=-0.0528201
				30:[s_wid_view_15d<874335] yes=51,no=52,missing=51
					51:leaf=0.0664515
					52:leaf=-0.112943
booster[34]:
0:[s_cid3_ctr_15d<0.0623752] yes=1,no=2,missing=1
	1:[bm25_12<5.925] yes=3,no=4,missing=3
		3:[s_shop_cvr_15d<0.0151377] yes=7,no=8,missing=7
			7:[match_ratio<0.835] yes=15,no=16,missing=15
				15:leaf=-0.101711
				16:leaf=-0.0254098
			8:[qs_query_brand_click_15d<1.5] yes=17,no=18,missing=17
				17:[s_shop_click_15d<7.89892e+06] yes=31,no=32,missing=31
					31:leaf=0.209951
					32:leaf=-0.0194817
				18:leaf=-0.118206
		4:[q_query_ctr_15d<0.365473] yes=9,no=10,missing=9
			9:[sa_brand_cvr<0.0100456] yes=19,no=20,missing=19
				19:leaf=-0.117763
				20:[s_cid2_view_15d<1.35039e+07] yes=33,no=34,missing=33
					33:leaf=0.013921
					34:leaf=0.103833
			10:[s_wid_click_15d<51.5] yes=21,no=22,missing=21
				21:[text_weight<223.5] yes=35,no=36,missing=35
					35:leaf=-0.0895459
					36:leaf=0.0283004
				22:[q_query_ctr_15d<0.647114] yes=37,no=38,missing=37
					37:leaf=-0.0348686
					38:leaf=0.11682
	2:[s_cid2_ctr_15d<0.579292] yes=5,no=6,missing=5
		5:[s_cid2_view_15d<826145] yes=11,no=12,missing=11
			11:[q_query_cvr_15d<0.10555] yes=23,no=24,missing=23
				23:[s_cid2_ctr_15d<0.286813] yes=39,no=40,missing=39
					39:leaf=-0.0252875
					40:leaf=0.0323653
				24:[qs_query_cid3_ctr_15d<0.0790333] yes=41,no=42,missing=41
					41:leaf=-0.085172
					42:leaf=0.00835439
			12:[q_query_click_15d<180630] yes=25,no=26,missing=25
				25:[qs_query_wid_ctr_15d<0.0588346] yes=43,no=44,missing=43
					43:leaf=-0.0218673
					44:leaf=-0.00404908
				26:[qs_query_wid_ctr_15d<0.0369956] yes=45,no=46,missing=45
					45:leaf=-0.0923137
					46:leaf=0.0349072
		6:[s_cid3_click_15d<198626] yes=13,no=14,missing=13
			13:[s_cid3_ctr_15d<0.304398] yes=27,no=28,missing=27
				27:[s_wid_ctr_15d<0.0333912] yes=47,no=48,missing=47
					47:leaf=0.0122644
					48:leaf=0.0471238
				28:[sa_wid_order_stk<244.5] yes=49,no=50,missing=49
					49:leaf=-0.000608216
					50:leaf=0.0136991
			14:[s_wid_ctr_15d<0.0740906] yes=29,no=30,missing=29
				29:[s_cid3_cvr_15d<0.0174467] yes=51,no=52,missing=51
					51:leaf=0.0141387
					52:leaf=-0.00938455
				30:[qs_query_wid_view_15d<50.5] yes=53,no=54,missing=53
					53:leaf=0.0326856
					54:leaf=0.00515842
booster[35]:
0:[s_cid2_ctr_15d<0.0750441] yes=1,no=2,missing=1
	1:[match_ratio<0.775] yes=3,no=4,missing=3
		3:[s_shop_order_15d<2794.5] yes=7,no=8,missing=7
			7:[bm25_2<11.22] yes=15,no=16,missing=15
				15:[sa_wid_follow<316.5] yes=31,no=32,missing=31
					31:leaf=-0.10144
					32:leaf=0.00961916
				16:leaf=0.0188713
			8:[s_wid_view_15d<50.5] yes=17,no=18,missing=17
				17:[bm25_12<6.995] yes=33,no=34,missing=33
					33:leaf=0.178746
					34:leaf=-0.0605444
				18:[qs_query_cid2_click_15d<8.5] yes=35,no=36,missing=35
					35:leaf=-0.105345
					36:leaf=0.0325649
		4:[q_query_ctr_15d<0.365473] yes=9,no=10,missing=9
			9:[s_brand_click_15d<3429] yes=19,no=20,missing=19
				19:[sa_brand_good_ratio<0.919137] yes=37,no=38,missing=37
					37:leaf=0.00939856
					38:leaf=-0.106973
				20:[sa_shop_addcart<6270] yes=39,no=40,missing=39
					39:leaf=0.0953459
					40:leaf=0.00948151
			10:[qs_query_wid_click_15d<15.5] yes=21,no=22,missing=21
				21:[bm25_2<14.965] yes=41,no=42,missing=41
					41:leaf=-0.0970673
					42:leaf=-0.0139989
				22:[s_wid_ctr_15d<0.0909908] yes=43,no=44,missing=43
					43:leaf=0.091512
					44:leaf=-0.0749647
	2:[is_order_by_user<0.5] yes=5,no=6,missing=5
		5:[is_follow_by_user<0.5] yes=11,no=12,missing=11
			11:[bm25_12<15.405] yes=23,no=24,missing=23
				23:[qs_query_wid_click_15d<41.5] yes=45,no=46,missing=45
					45:leaf=-0.0130013
					46:leaf=0.00120241
				24:[qs_query_cid2_view_15d<109.5] yes=47,no=48,missing=47
					47:leaf=0.0306065
					48:leaf=0.00708597
			12:[qs_query_wid_ctr_15d<0.082604] yes=25,no=26,missing=25
				25:[sa_wid_good_comm<520.5] yes=49,no=50,missing=49
					49:leaf=0.169669
					50:leaf=0.125386
				26:[qs_query_wid_ctr_15d<0.123896] yes=51,no=52,missing=51
					51:leaf=0.104498
					52:leaf=0.0765954
		6:[sa_wid_good_comm<1401] yes=13,no=14,missing=13
			13:[sa_shop_addcart<28919.5] yes=27,no=28,missing=27
				27:[sa_wid_pv<374.5] yes=53,no=54,missing=53
					53:leaf=0.156906
					54:leaf=0.112405
				28:[s_cid2_click_15d<1.33453e+06] yes=55,no=56,missing=55
					55:leaf=0.0404926
					56:leaf=0.0925243
			14:[qs_query_brand_ctr_15d<0.152499] yes=29,no=30,missing=29
				29:[s_cid3_ctr_15d<0.468686] yes=57,no=58,missing=57
					57:leaf=0.0475033
					58:leaf=0.0857006
				30:[sa_wid_follow<1012] yes=59,no=60,missing=59
					59:leaf=-0.00360114
					60:leaf=0.0627407
booster[36]:
0:[s_cid2_ctr_15d<0.0608678] yes=1,no=2,missing=1
	1:[match_ratio<0.775] yes=3,no=4,missing=3
		3:[s_shop_ctr_15d<0.10287] yes=7,no=8,missing=7
			7:[s_wid_ctr_15d<0.0188258] yes=15,no=16,missing=15
				15:[bm25_12<9.005] yes=31,no=32,missing=31
					31:leaf=-0.101453
					32:leaf=-0.0292278
				16:[sa_shop_order_stk<316.5] yes=33,no=34,missing=33
					33:leaf=0.141327
					34:leaf=-0.114896
			8:[s_cid3_order_15d<1069] yes=17,no=18,missing=17
				17:[s_shop_click_15d<7.89892e+06] yes=35,no=36,missing=35
					35:leaf=0.231609
					36:leaf=-0.0184218
				18:[sa_shop_good_ratio_clean<0.9724] yes=37,no=38,missing=37
					37:leaf=-0.129901
					38:leaf=0.00287789
		4:[bm25_2<17.035] yes=9,no=10,missing=9
			9:[q_query_ctr_15d<0.403027] yes=19,no=20,missing=19
				19:[qs_query_wid_view_15d<477.5] yes=39,no=40,missing=39
					39:leaf=-0.00813159
					40:leaf=0.133783
				20:[bm25_2<11.215] yes=41,no=42,missing=41
					41:leaf=-0.101319
					42:leaf=-0.00113579
			10:[sa_brand_bad_ratio<0.00990714] yes=21,no=22,missing=21
				21:[s_cid3_view_15d<182376] yes=43,no=44,missing=43
					43:leaf=0.0756327
					44:leaf=-0.0140892
				22:[s_brand_click_15d<1.25498e+06] yes=45,no=46,missing=45
					45:leaf=0.0275889
					46:leaf=0.163716
	2:[is_order_by_user<0.5] yes=5,no=6,missing=5
		5:[s_cid2_ctr_15d<0.579292] yes=11,no=12,missing=11
			11:[s_cid2_view_15d<827040] yes=23,no=24,missing=23
				23:[bm25_2<4.535] yes=47,no=48,missing=47
					47:leaf=-0.0113301
					48:leaf=0.022535
				24:[q_query_click_15d<193406] yes=49,no=50,missing=49
					49:leaf=-0.0160895
					50:leaf=-0.0787307
			12:[sa_wid_cvr<0.086182] yes=25,no=26,missing=25
				25:[s_cid3_order_15d<38828] yes=51,no=52,missing=51
					51:leaf=0.00226585
					52:leaf=-0.00964368
				26:[qs_query_cid2_click_15d<327.5] yes=53,no=54,missing=53
					53:leaf=0.0354681
					54:leaf=0.00897224
		6:[sa_wid_order_stk<347.5] yes=13,no=14,missing=13
			13:[qs_query_shop_ctr_15d<0.136684] yes=27,no=28,missing=27
				27:[bm25_2<6.08] yes=55,no=56,missing=55
					55:leaf=0.0752855
					56:leaf=0.111654
				28:[s_cid2_cvr_15d<0.02216] yes=57,no=58,missing=57
					57:leaf=-0.0466764
					58:leaf=0.077621
			14:[s_wid_ctr_15d<0.0559531] yes=29,no=30,missing=29
				29:[s_cid3_ctr_15d<0.321895] yes=59,no=60,missing=59
					59:leaf=-0.00493516
					60:leaf=0.0797354
				30:[s_cid3_ctr_15d<0.479694] yes=61,no=62,missing=61
					61:leaf=0.0393532
					62:leaf=0.0602627
booster[37]:
0:[s_cid3_ctr_15d<0.0621367] yes=1,no=2,missing=1
	1:[match_ratio<0.45] yes=3,no=4,missing=3
		3:[s_shop_cvr_15d<0.0151377] yes=7,no=8,missing=7
			7:[s_wid_ctr_15d<0.00365134] yes=15,no=16,missing=15
				15:leaf=-0.101238
				16:leaf=-0.0531783
			8:[s_cid3_ctr_15d<0.0235565] yes=17,no=18,missing=17
				17:leaf=-0.0814894
				18:leaf=0.130354
		4:[text_weight<219.5] yes=9,no=10,missing=9
			9:[s_shop_order_15d<21.5] yes=19,no=20,missing=19
				19:[s_cid2_order_15d<84876.5] yes=31,no=32,missing=31
					31:leaf=-0.111558
					32:leaf=-0.00617046
				20:[s_cid3_view_15d<2.81886e+06] yes=33,no=34,missing=33
					33:leaf=0.023633
					34:leaf=-0.0610939
			10:[s_cid2_view_15d<4.68756e+06] yes=21,no=22,missing=21
				21:[s_brand_order_15d<52018.5] yes=35,no=36,missing=35
					35:leaf=-0.0919098
					36:leaf=0.116224
				22:leaf=0.156463
	2:[is_follow_by_user<0.5] yes=5,no=6,missing=5
		5:[bm25_12<15.225] yes=11,no=12,missing=11
			11:[qs_query_wid_order_15d<6.5] yes=23,no=24,missing=23
				23:[q_query_view_15d<8737.5] yes=37,no=38,missing=37
					37:leaf=-0.00153822
					38:leaf=-0.0180092
				24:[qs_query_wid_ctr_15d<0.0160149] yes=39,no=40,missing=39
					39:leaf=-0.0626167
					40:leaf=0.00415314
			12:[q_query_ctr_15d<0.983402] yes=25,no=26,missing=25
				25:[q_query_ctr_15d<0.468387] yes=41,no=42,missing=41
					41:leaf=0.0269974
					42:leaf=0.00645913
				26:[qs_query_wid_click_15d<5] yes=43,no=44,missing=43
					43:leaf=0.173734
					44:leaf=0.0348851
		6:[qs_query_wid_ctr_15d<0.0833553] yes=13,no=14,missing=13
			13:[sa_wid_follow<2449.5] yes=27,no=28,missing=27
				27:[qs_query_cid2_view_15d<8636] yes=45,no=46,missing=45
					45:leaf=0.124516
					46:leaf=0.166416
				28:[qs_query_cid3_ctr_15d<0.393954] yes=47,no=48,missing=47
					47:leaf=0.0736089
					48:leaf=0.115244
			14:[is_order_by_user<0.5] yes=29,no=30,missing=29
				29:[qs_query_wid_ctr_15d<0.151841] yes=49,no=50,missing=49
					49:leaf=0.0989891
					50:leaf=0.0696775
				30:[qs_query_brand_ctr_15d<0.481853] yes=51,no=52,missing=51
					51:leaf=-0.104229
					52:leaf=0.0361032
booster[38]:
0:[s_cid2_ctr_15d<0.0608678] yes=1,no=2,missing=1
	1:[match_ratio<0.775] yes=3,no=4,missing=3
		3:[s_shop_cvr_15d<0.0110376] yes=7,no=8,missing=7
			7:[bm25_2<10.4] yes=15,no=16,missing=15
				15:[s_wid_click_15d<17.5] yes=31,no=32,missing=31
					31:leaf=-0.100989
					32:leaf=-0.0535256
				16:leaf=0.0118076
			8:[qs_query_brand_view_15d<1749.5] yes=17,no=18,missing=17
				17:[s_cid2_ctr_15d<0.00904405] yes=33,no=34,missing=33
					33:leaf=0.0476268
					34:leaf=-0.0833959
				18:leaf=0.170505
		4:[s_shop_ctr_15d<0.260026] yes=9,no=10,missing=9
			9:[q_query_cvr_15d<0.0420725] yes=19,no=20,missing=19
				19:[qs_query_wid_ctr_15d<0.0276863] yes=35,no=36,missing=35
					35:leaf=-0.0124443
					36:leaf=0.0779314
				20:[sa_brand_follow<4906] yes=37,no=38,missing=37
					37:leaf=0.0648573
					38:leaf=-0.103612
			10:[qs_query_wid_ctr_15d<0.0123741] yes=21,no=22,missing=21
				21:leaf=0.156176
				22:leaf=0.00170971
	2:[bm25_2<6.655] yes=5,no=6,missing=5
		5:[qs_query_brand_ctr_15d<0.0567265] yes=11,no=12,missing=11
			11:[qs_query_wid_ctr_15d<0.0400195] yes=23,no=24,missing=23
				23:[q_query_view_15d<148.5] yes=39,no=40,missing=39
					39:leaf=-0.0139091
					40:leaf=-0.0455234
				24:[s_wid_order_15d<285.5] yes=41,no=42,missing=41
					41:leaf=0.0308468
					42:leaf=-0.046854
			12:[qs_query_wid_ctr_15d<0.071439] yes=25,no=26,missing=25
				25:[s_cid3_cvr_15d<0.0148553] yes=43,no=44,missing=43
					43:leaf=0.0147126
					44:leaf=-0.0123447
				26:[q_query_ctr_15d<0.705345] yes=45,no=46,missing=45
					45:leaf=0.0160067
					46:leaf=0.00313286
		6:[qs_query_cid2_view_15d<170.5] yes=13,no=14,missing=13
			13:[s_wid_order_15d<36.5] yes=27,no=28,missing=27
				27:[s_wid_ctr_15d<0.0766715] yes=47,no=48,missing=47
					47:leaf=0.00136929
					48:leaf=0.0479927
				28:[match_ratio<0.775] yes=49,no=50,missing=49
					49:leaf=0.0171499
					50:leaf=0.0423891
			14:[qs_query_wid_click_15d<9.5] yes=29,no=30,missing=29
				29:[qs_query_wid_view_15d<292.5] yes=51,no=52,missing=51
					51:leaf=-0.0122592
					52:leaf=-0.0579509
				30:[q_query_click_15d<1832.5] yes=53,no=54,missing=53
					53:leaf=0.0157858
					54:leaf=0.00101252
booster[39]:
0:[s_cid3_ctr_15d<0.057418] yes=1,no=2,missing=1
	1:[match_ratio<0.45] yes=3,no=4,missing=3
		3:[s_wid_ctr_15d<0.0138055] yes=7,no=8,missing=7
			7:[sa_shop_pv<2.55031e+06] yes=15,no=16,missing=15
				15:leaf=-0.101073
				16:leaf=-0.0491302
			8:leaf=-0.0259817
		4:[sa_wid_good_comm<118.5] yes=9,no=10,missing=9
			9:[s_wid_ctr_15d<0.0171184] yes=17,no=18,missing=17
				17:[q_query_ctr_15d<0.347679] yes=29,no=30,missing=29
					29:leaf=-0.0146219
					30:leaf=-0.0840249
				18:[sa_shop_pv<18708] yes=31,no=32,missing=31
					31:leaf=0.0762764
					32:leaf=-0.0337043
			10:[s_brand_order_15d<1096.5] yes=19,no=20,missing=19
				19:leaf=-0.103442
				20:leaf=-0.160843
	2:[is_follow_by_user<0.5] yes=5,no=6,missing=5
		5:[bm25_2<6.195] yes=11,no=12,missing=11
			11:[qs_query_shop_ctr_15d<0.0555424] yes=21,no=22,missing=21
				21:[qs_query_wid_ctr_15d<0.0391713] yes=33,no=34,missing=33
					33:leaf=-0.0333042
					34:leaf=0.0198394
				22:[text_weight<102.5] yes=35,no=36,missing=35
					35:leaf=0.00670455
					36:leaf=-0.00993192
			12:[q_query_view_15d<36630.5] yes=23,no=24,missing=23
				23:[s_wid_order_15d<2.5] yes=37,no=38,missing=37
					37:leaf=-0.00610646
					38:leaf=0.00866571
				24:[qs_query_wid_ctr_15d<0.0615147] yes=39,no=40,missing=39
					39:leaf=-0.0132323
					40:leaf=0.00802023
		6:[sa_wid_good_comm<3369] yes=13,no=14,missing=13
			13:[s_wid_ctr_15d<0.0411288] yes=25,no=26,missing=25
				25:[text_weight<216.5] yes=41,no=42,missing=41
					41:leaf=0.157225
					42:leaf=0.0951552
				26:[qs_query_cid3_view_15d<46494.5] yes=43,no=44,missing=43
					43:leaf=0.0980508
					44:leaf=0.134996
			14:[is_order_by_user<0.5] yes=27,no=28,missing=27
				27:[bm25_2<20.07] yes=45,no=46,missing=45
					45:leaf=0.088009
					46:leaf=-0.0353995
				28:[bm25_2<10.59] yes=47,no=48,missing=47
					47:leaf=-0.0423748
					48:leaf=0.0650937
booster[40]:
0:[s_cid2_ctr_15d<0.579292] yes=1,no=2,missing=1
	1:[s_cid3_ctr_15d<0.057418] yes=3,no=4,missing=3
		3:[bm25_12<5.85] yes=7,no=8,missing=7
			7:[s_shop_order_15d<12125] yes=15,no=16,missing=15
				15:[s_wid_click_15d<17] yes=31,no=32,missing=31
					31:leaf=-0.100921
					32:leaf=-0.0154359
				16:[s_cid3_cvr_15d<0.00108615] yes=33,no=34,missing=33
					33:leaf=-0.055505
					34:leaf=0.142343
			8:[bm25_2<6.71] yes=17,no=18,missing=17
				17:[sa_shop_good_ratio<0.952663] yes=35,no=36,missing=35
					35:leaf=0.00695245
					36:leaf=0.144066
				18:[text_weight<238.5] yes=37,no=38,missing=37
					37:leaf=-0.0354286
					38:leaf=0.106531
		4:[s_cid2_view_15d<851535] yes=9,no=10,missing=9
			9:[q_query_cvr_15d<0.135049] yes=19,no=20,missing=19
				19:[s_shop_ctr_15d<0.0783682] yes=39,no=40,missing=39
					39:leaf=-0.0252394
					40:leaf=0.0253259
				20:[s_wid_view_15d<106.5] yes=41,no=42,missing=41
					41:leaf=0.319031
					42:leaf=-0.0104672
			10:[q_query_click_15d<193406] yes=21,no=22,missing=21
				21:[s_wid_click_15d<8.5] yes=43,no=44,missing=43
					43:leaf=-0.0336257
					44:leaf=-0.0118638
				22:[qs_query_wid_ctr_15d<0.0362439] yes=45,no=46,missing=45
					45:leaf=-0.0816677
					46:leaf=0.0398798
	2:[sa_wid_cvr<0.123616] yes=5,no=6,missing=5
		5:[s_cid3_order_15d<35980.5] yes=11,no=12,missing=11
			11:[s_brand_cvr_15d<0.0375158] yes=23,no=24,missing=23
				23:[sa_wid_pv<1693.5] yes=47,no=48,missing=47
					47:leaf=-0.00725731
					48:leaf=0.00516302
				24:[sa_shop_cvr<0.105603] yes=49,no=50,missing=49
					49:leaf=0.0519382
					50:leaf=0.00662502
			12:[sa_wid_cvr<0.0420947] yes=25,no=26,missing=25
				25:[s_wid_ctr_15d<0.0475644] yes=51,no=52,missing=51
					51:leaf=-0.0214201
					52:leaf=-0.00260382
				26:[s_wid_ctr_15d<0.0355788] yes=53,no=54,missing=53
					53:leaf=-0.0209467
					54:leaf=0.00232381
		6:[qs_query_wid_view_15d<50.5] yes=13,no=14,missing=13
			13:[s_cid3_cvr_15d<0.0708056] yes=27,no=28,missing=27
				27:[match_ratio<0.27] yes=55,no=56,missing=55
					55:leaf=-0.0238036
					56:leaf=0.0765003
				28:[s_wid_ctr_15d<0.181361] yes=57,no=58,missing=57
					57:leaf=0.0272581
					58:leaf=0.0741121
			14:[qs_query_wid_ctr_15d<0.0189021] yes=29,no=30,missing=29
				29:[qs_query_wid_ctr_15d<0.0094969] yes=59,no=60,missing=59
					59:leaf=-0.095261
					60:leaf=-0.0377523
				30:[s_cid3_cvr_15d<0.150729] yes=61,no=62,missing=61
					61:leaf=0.0192075
					62:leaf=-0.00427868
booster[41]:
0:[s_cid3_ctr_15d<0.0654071] yes=1,no=2,missing=1
	1:[s_shop_ctr_15d<0.0770274] yes=3,no=4,missing=3
		3:[bm25_12<13.575] yes=7,no=8,missing=7
			7:[match_ratio<0.45] yes=15,no=16,missing=15
				15:[s_wid_ctr_15d<0.00110595] yes=29,no=30,missing=29
					29:leaf=-0.10082
					30:leaf=-0.0494132
				16:[text_weight<100.5] yes=31,no=32,missing=31
					31:leaf=0.00320101
					32:leaf=-0.0939561
			8:[s_cid3_cvr_15d<0.000251236] yes=17,no=18,missing=17
				17:leaf=0.117451
				18:[sa_brand_addcart<8.48095e+06] yes=33,no=34,missing=33
					33:leaf=0.0233522
					34:leaf=-0.122909
		4:[text_weight<272.5] yes=9,no=10,missing=9
			9:[bm25_2<5.465] yes=19,no=20,missing=19
				19:[sa_shop_addcart<841928] yes=35,no=36,missing=35
					35:leaf=-0.109171
					36:leaf=-0.0209895
				20:[s_cid3_click_15d<869] yes=37,no=38,missing=37
					37:leaf=-0.0715858
					38:leaf=0.0481054
			10:leaf=0.180327
	2:[is_order_by_user<0.5] yes=5,no=6,missing=5
		5:[text_weight<207.5] yes=11,no=12,missing=11
			11:[qs_query_wid_click_15d<24.5] yes=21,no=22,missing=21
				21:[qs_query_wid_view_15d<859.5] yes=39,no=40,missing=39
					39:leaf=-0.00895068
					40:leaf=-0.0635581
				22:[qs_query_wid_view_15d<2479.5] yes=41,no=42,missing=41
					41:leaf=0.0142229
					42:leaf=-0.00214647
			12:[q_query_ctr_15d<0.919236] yes=23,no=24,missing=23
				23:[q_query_ctr_15d<0.204582] yes=43,no=44,missing=43
					43:leaf=0.0183373
					44:leaf=0.00346069
				24:[qs_query_wid_click_15d<0.5] yes=45,no=46,missing=45
					45:leaf=0.161226
					46:leaf=0.0244878
		6:[qs_query_brand_cvr_15d<0.00256728] yes=13,no=14,missing=13
			13:[sa_wid_order_stk<336] yes=25,no=26,missing=25
				25:[sa_brand_good_ratio<0.918424] yes=47,no=48,missing=47
					47:leaf=-0.0124504
					48:leaf=0.103564
				26:[s_cid3_ctr_15d<0.298739] yes=49,no=50,missing=49
					49:leaf=-0.0434067
					50:leaf=0.0776488
			14:[sa_shop_good_comm<20996] yes=27,no=28,missing=27
				27:[sa_wid_pv<3960.5] yes=51,no=52,missing=51
					51:leaf=0.100362
					52:leaf=0.0710336
				28:[s_cid2_ctr_15d<0.474454] yes=53,no=54,missing=53
					53:leaf=0.00455998
					54:leaf=0.0555577
booster[42]:
0:[match_ratio<0.535] yes=1,no=2,missing=1
	1:[qs_query_wid_ctr_15d<0.068954] yes=3,no=4,missing=3
		3:[s_cid3_ctr_15d<0.143144] yes=7,no=8,missing=7
			7:[qs_query_cid2_ctr_15d<0.0719398] yes=15,no=16,missing=15
				15:[match_ratio<0.45] yes=31,no=32,missing=31
					31:leaf=-0.0977895
					32:leaf=-0.042407
				16:[sa_wid_cvr<0.186383] yes=33,no=34,missing=33
					33:leaf=0.0145602
					34:leaf=0.187645
			8:[s_cid3_ctr_15d<0.575255] yes=17,no=18,missing=17
				17:[qs_query_wid_ctr_15d<0.0588337] yes=35,no=36,missing=35
					35:leaf=-0.0139442
					36:leaf=0.0167887
				18:[s_cid3_cvr_15d<0.0321684] yes=37,no=38,missing=37
					37:leaf=-0.0460058
